<?xml version="1.0"?>
<opencv_storage>
<cascade>
  <stageType>BOOST</stageType>
  <featureType>LBP</featureType>
  <height>40</height>
  <width>40</width>
  <stageParams>
    <boostType>GAB</boostType>
    <minHitRate>9.9900001287460327e-01</minHitRate>
    <maxFalseAlarm>5.0000000000000000e-01</maxFalseAlarm>
    <weightTrimRate>9.4999999999999996e-01</weightTrimRate>
    <maxDepth>1</maxDepth>
    <maxWeakCount>100</maxWeakCount></stageParams>
  <featureParams>
    <maxCatCount>256</maxCatCount>
    <featSize>1</featSize></featureParams>
  <stageNum>12</stageNum>
  <stages>
    <!-- stage 0 -->
    <_>
      <maxWeakCount>8</maxWeakCount>
      <stageThreshold>-1.2456839084625244e+00</stageThreshold>
      <weakClassifiers>
        <_>
          <internalNodes>
            0 -1 2 -129971192 -45548064 -287524312 -161679382 -599728436
            -1572913 -270213906 -2424945</internalNodes>
          <leafValues>
            -5.8737319707870483e-01 7.1982961893081665e-01</leafValues></_>
        <_>
          <internalNodes>
            0 -1 44 -570630148 -6596332 -700915372 -141274408 -10433316
            -187924012 -622265908 941677700</internalNodes>
          <leafValues>
            -5.5598402023315430e-01 4.8095402121543884e-01</leafValues></_>
        <_>
          <internalNodes>
            0 -1 59 482939904 -1210461893 -402636559 -315263735
            1577081864 -7114550 1315498238 -31458325</internalNodes>
          <leafValues>
            -5.0495225191116333e-01 3.8409507274627686e-01</leafValues></_>
        <_>
          <internalNodes>
            0 -1 135 661787400 330822745 805389945 1510891788 1921592064
            -1276960165 -352264684 539540536</internalNodes>
          <leafValues>
            -5.8648949861526489e-01 3.4413123130798340e-01</leafValues></_>
        <_>
          <internalNodes>
            0 -1 14 -88544244 -120957074 1616925760 1686032828
            -270250316 -283148199 -387388684 1652726164</internalNodes>
          <leafValues>
            -6.5348607301712036e-01 2.5544142723083496e-01</leafValues></_>
        <_>
          <internalNodes>
            0 -1 125 1534309117 -1082170279 -1711835954 -39104153
            433327428 901245452 -912478828 -1102572183</internalNodes>
          <leafValues>
            -3.8467201590538025e-01 4.7890079021453857e-01</leafValues></_>
        <_>
          <internalNodes>
            0 -1 54 -293614897 -343937472 -823640561 -608061405
            -18300854 -1076005125 -535532561 -130515390</internalNodes>
          <leafValues>
            -3.1068617105484009e-01 5.8351337909698486e-01</leafValues></_>
        <_>
          <internalNodes>
            0 -1 107 269970452 -9370304 -1877356411 -1139637545
            -976187134 2030178308 455266930 726140985</internalNodes>
          <leafValues>
            -4.7034275531768799e-01 3.7040042877197266e-01</leafValues></_></weakClassifiers></_>
    <!-- stage 1 -->
    <_>
      <maxWeakCount>11</maxWeakCount>
      <stageThreshold>-1.2487860918045044e+00</stageThreshold>
      <weakClassifiers>
        <_>
          <internalNodes>
            0 -1 4 -834614072 -238686336 -454372630 -861077527 -18821058
            -17891345 -361836801 -93327697</internalNodes>
          <leafValues>
            -3.7293729186058044e-01 6.4036345481872559e-01</leafValues></_>
        <_>
          <internalNodes>
            0 -1 83 -209793452 -753559481 -1956882168 -549162679
            -86070976 -308604841 -1223099552 -214635588</internalNodes>
          <leafValues>
            -4.5249378681182861e-01 4.3128415942192078e-01</leafValues></_>
        <_>
          <internalNodes>
            0 -1 63 1566333248 -31972717 722722643 2075767611 -122545138
            -1564221038 -670983154 -75505169</internalNodes>
          <leafValues>
            -4.4043600559234619e-01 3.6028194427490234e-01</leafValues></_>
        <_>
          <internalNodes>
            0 -1 101 -159776638 -622589917 645580450 1365985443
            -1497443190 98467141 -1004883566 -11807074</internalNodes>
          <leafValues>
            -2.8230082988739014e-01 5.8018183708190918e-01</leafValues></_>
        <_>
          <internalNodes>
            0 -1 102 -735149880 -773107944 775883865 -112618215
            -2030923606 -2060288463 -169638678 -70529809</internalNodes>
          <leafValues>
            -2.4900518357753754e-01 6.9555878639221191e-01</leafValues></_>
        <_>
          <internalNodes>
            0 -1 11 1618993070 907482262 -1459070372 -1869207242
            -629086079 268437589 -1245664804 581442136</internalNodes>
          <leafValues>
            -4.9692341685295105e-01 3.6280578374862671e-01</leafValues></_>
        <_>
          <internalNodes>
            0 -1 136 -223620966 -637597552 1054876850 1496390340
            -1272727888 -377088132 -1174814258 -69231649</internalNodes>
          <leafValues>
            -2.4909982085227966e-01 7.5020390748977661e-01</leafValues></_>
        <_>
          <internalNodes>
            0 -1 162 -110718832 -779538674 1325283528 1367967085
            212576786 802502181 1817742794 -1291156294</internalNodes>
          <leafValues>
            -2.9400071501731873e-01 5.5921775102615356e-01</leafValues></_>
        <_>
          <internalNodes>
            0 -1 66 184553480 411391888 21151724 -402493190 -1466941365
            -1281687534 -1154850102 -1160259189</internalNodes>
          <leafValues>
            -5.2659261226654053e-01 3.5664340853691101e-01</leafValues></_>
        <_>
          <internalNodes>
            0 -1 9 -100737025 2142902206 2130608092 2027048394
            -1342195411 -75531011 -537207574 -73751574</internalNodes>
          <leafValues>
            -3.2800513505935669e-01 5.7913053035736084e-01</leafValues></_>
        <_>
          <internalNodes>
            0 -1 132 1882841234 -157335956 642149946 2066558561
            1395562504 628053580 1398187979 -779739910</internalNodes>
          <leafValues>
            -3.1325724720954895e-01 5.9231728315353394e-01</leafValues></_></weakClassifiers></_>
    <!-- stage 2 -->
    <_>
      <maxWeakCount>12</maxWeakCount>
      <stageThreshold>-1.2191227674484253e+00</stageThreshold>
      <weakClassifiers>
        <_>
          <internalNodes>
            0 -1 41 -34543488 -5242940 -554656032 -537788983 -25370916
            -4980738 -144832884 -1238154</internalNodes>
          <leafValues>
            -3.9308577775955200e-01 5.8900403976440430e-01</leafValues></_>
        <_>
          <internalNodes>
            0 -1 18 -1040261746 -1160897588 -956153068 -1027845240
            2076844233 2110556315 -1845459782 1011635556</internalNodes>
          <leafValues>
            -5.4201418161392212e-01 2.9424229264259338e-01</leafValues></_>
        <_>
          <internalNodes>
            0 -1 52 159400008 1064898969 1910339789 1394184579
            1884379340 -1684455352 -668355264 -1419005407</internalNodes>
          <leafValues>
            -4.7808101773262024e-01 3.2335621118545532e-01</leafValues></_>
        <_>
          <internalNodes>
            0 -1 25 -1859895088 -79030739 -1260211119 1437406385
            -1160211750 -1939065674 398473918 2122991067</internalNodes>
          <leafValues>
            -3.5659036040306091e-01 3.9826983213424683e-01</leafValues></_>
        <_>
          <internalNodes>
            0 -1 90 -11474380 -1425104434 -1056780256 -753540479
            -112694764 -49288298 -2023472300 780150597</internalNodes>
          <leafValues>
            -6.1072212457656860e-01 2.2235926985740662e-01</leafValues></_>
        <_>
          <internalNodes>
            0 -1 159 -780089128 -779350912 929985175 1566248206
            -2106544374 -1616701877 1667866015 -551877349</internalNodes>
          <leafValues>
            -2.6555696129798889e-01 5.5259889364242554e-01</leafValues></_>
        <_>
          <internalNodes>
            0 -1 164 271617172 -188936040 2016950013 1494794012
            -1162309253 -961634695 991999163 -608468006</internalNodes>
          <leafValues>
            -2.5642290711402893e-01 5.5451041460037231e-01</leafValues></_>
        <_>
          <internalNodes>
            0 -1 46 -702889904 -537781734 -1367709743 1572714001
            -1508581992 -1161531562 782297083 -1690435110</internalNodes>
          <leafValues>
            -2.8766915202140808e-01 5.2289670705795288e-01</leafValues></_>
        <_>
          <internalNodes>
            0 -1 157 -645601064 -219923151 1140341869 1558203389
            -764266564 -1708381354 -2057270549 2131054746</internalNodes>
          <leafValues>
            -3.1498861312866211e-01 4.5979380607604980e-01</leafValues></_>
        <_>
          <internalNodes>
            0 -1 148 -466086912 2096699187 1779103189 1075252607
            -482258888 -1689911263 -1013046094 -1163706535</internalNodes>
          <leafValues>
            -4.4830965995788574e-01 3.4965729713439941e-01</leafValues></_>
        <_>
          <internalNodes>
            0 -1 123 -689417198 -759414924 989735541 -215784183
            -1271116776 -1745137868 250916015 -26045286</internalNodes>
          <leafValues>
            -2.9920026659965515e-01 5.3558737039566040e-01</leafValues></_>
        <_>
          <internalNodes>
            0 -1 22 -640572974 2132024443 1577353232 -545253367 1702036
            -874971135 -83248836 196792992</internalNodes>
          <leafValues>
            -4.2737397551536560e-01 3.6743816733360291e-01</leafValues></_></weakClassifiers></_>
    <!-- stage 3 -->
    <_>
      <maxWeakCount>15</maxWeakCount>
      <stageThreshold>-1.0617716312408447e+00</stageThreshold>
      <weakClassifiers>
        <_>
          <internalNodes>
            0 -1 15 -1937183608 -1601588054 -387226998 -403702038
            -173157651 -3145745 -269646129 -672139345</internalNodes>
          <leafValues>
            -3.3658537268638611e-01 5.8532112836837769e-01</leafValues></_>
        <_>
          <internalNodes>
            0 -1 35 1608444320 -251260634 -1067957180 -706952940
            -578001988 542244872 -125905972 2110042484</internalNodes>
          <leafValues>
            -5.8333110809326172e-01 2.7607896924018860e-01</leafValues></_>
        <_>
          <internalNodes>
            0 -1 51 1527460608 -1747287613 -1791946560 -305409582
            -1041809400 -1030782822 -921914617 1872753634</internalNodes>
          <leafValues>
            -4.7881522774696350e-01 2.7462732791900635e-01</leafValues></_>
        <_>
          <internalNodes>
            0 -1 124 -1116216489 128270486 4202640 -2134621166
            -1599221232 167805458 -473042432 -515130392</internalNodes>
          <leafValues>
            -3.3834981918334961e-01 3.5488963127136230e-01</leafValues></_>
        <_>
          <internalNodes>
            0 -1 116 -1277174142 -739337719 238007330 -263735646
            126846413 -2140195043 221443587 -244326193</internalNodes>
          <leafValues>
            -2.3837357759475708e-01 5.0408637523651123e-01</leafValues></_>
        <_>
          <internalNodes>
            0 -1 133 300661655 171178727 -631683464 -487494848 372341301
            1190831792 -1720721894 -402655217</internalNodes>
          <leafValues>
            -2.5057008862495422e-01 4.8901054263114929e-01</leafValues></_>
        <_>
          <internalNodes>
            0 -1 12 -2050230881 -1517105122 -2088656762 -943158036
            1510513834 138010706 -519482720 1894393332</internalNodes>
          <leafValues>
            -3.6550778150558472e-01 3.4304207563400269e-01</leafValues></_>
        <_>
          <internalNodes>
            0 -1 149 -753821901 -165417062 1014165354 67569379 384604629
            -885049793 1464573252 402378613</internalNodes>
          <leafValues>
            -2.9937291145324707e-01 4.2227441072463989e-01</leafValues></_>
        <_>
          <internalNodes>
            0 -1 1 686343206 -1769041533 1804149499 -1062694561
            1268767038 -1031696255 -493749860 411818427</internalNodes>
          <leafValues>
            -4.5437979698181152e-01 2.8828468918800354e-01</leafValues></_>
        <_>
          <internalNodes>
            0 -1 7 -1067141129 1800052718 788500402 -427852548
            -1393056182 -1363157001 750220539 -673188784</internalNodes>
          <leafValues>
            -3.0740240216255188e-01 4.4110688567161560e-01</leafValues></_>
        <_>
          <internalNodes>
            0 -1 68 -775769368 818036835 17195008 -326842922 673374644
            1646266369 1365729377 291263474</internalNodes>
          <leafValues>
            -4.8296085000038147e-01 2.9379424452781677e-01</leafValues></_>
        <_>
          <internalNodes>
            0 -1 58 -2953765 2128644800 -1909690895 1160711513
            -2058749186 -2098823580 1337225615 2076911291</internalNodes>
          <leafValues>
            -2.6396045088768005e-01 5.4676771163940430e-01</leafValues></_>
        <_>
          <internalNodes>
            0 -1 77 -1286872350 -750285688 526404 752394561 -1801968375
            142774352 -364467658 1117705236</internalNodes>
          <leafValues>
            -4.4224235415458679e-01 3.2839325070381165e-01</leafValues></_>
        <_>
          <internalNodes>
            0 -1 137 -1987557802 -2058708608 436281603 2107457860
            1619055598 328540960 11559081 128600107</internalNodes>
          <leafValues>
            -3.9521053433418274e-01 3.3150234818458557e-01</leafValues></_>
        <_>
          <internalNodes>
            0 -1 50 -708382220 -2091515390 30245834 1313274339 165782912
            433127450 1543512498 703204172</internalNodes>
          <leafValues>
            -4.4687578082084656e-01 3.1046080589294434e-01</leafValues></_></weakClassifiers></_>
    <!-- stage 4 -->
    <_>
      <maxWeakCount>15</maxWeakCount>
      <stageThreshold>-5.1270157098770142e-01</stageThreshold>
      <weakClassifiers>
        <_>
          <internalNodes>
            0 -1 64 -730214144 -538347549 1874281570 -55054349
            -587807420 -202244809 2137468419 -143132049</internalNodes>
          <leafValues>
            -2.3193095624446869e-01 5.8610707521438599e-01</leafValues></_>
        <_>
          <internalNodes>
            0 -1 32 -754919264 1421451284 592345655 1501412424
            -1098602870 -1240413324 1114744475 328196235</internalNodes>
          <leafValues>
            -2.4376176297664642e-01 5.1118469238281250e-01</leafValues></_>
        <_>
          <internalNodes>
            0 -1 8 2029807598 1074161546 -2080053248 -824820284
            -619659320 -804093938 312274852 633655674</internalNodes>
          <leafValues>
            -5.9121596813201904e-01 2.5432491302490234e-01</leafValues></_>
        <_>
          <internalNodes>
            0 -1 10 -171409174 -1025357720 1621501156 2065366114
            -2063101234 108012788 1054004810 2003272235</internalNodes>
          <leafValues>
            -3.2876279950141907e-01 4.2977985739707947e-01</leafValues></_>
        <_>
          <internalNodes>
            0 -1 156 -649998184 -775454318 1107575001 331682051
            -435918710 285769856 2073072042 1360201907</internalNodes>
          <leafValues>
            -3.4315857291221619e-01 4.3288096785545349e-01</leafValues></_>
        <_>
          <internalNodes>
            0 -1 126 2013828320 -80856352 778981347 -144236168 269268110
            -1877033116 782806718 319001610</internalNodes>
          <leafValues>
            -3.6741468310356140e-01 4.1920387744903564e-01</leafValues></_>
        <_>
          <internalNodes>
            0 -1 88 -185867070 -303215448 -50406748 1944152805
            -199961174 353660453 -1933590382 -742682209</internalNodes>
          <leafValues>
            -2.6189678907394409e-01 5.7018345594406128e-01</leafValues></_>
        <_>
          <internalNodes>
            0 -1 49 -349120888 -1423881048 652898083 527006009 14588836
            1404964432 953732650 195265199</internalNodes>
          <leafValues>
            -3.3178594708442688e-01 4.3990999460220337e-01</leafValues></_>
        <_>
          <internalNodes>
            0 -1 43 -710098712 1143260769 989321792 -774821319
            -1575234150 1142352884 544868355 223318739</internalNodes>
          <leafValues>
            -3.5500931739807129e-01 4.3105962872505188e-01</leafValues></_>
        <_>
          <internalNodes>
            0 -1 114 -67921878 -777040856 242908773 -1860571420
            -2121023966 1142208334 597882821 900438955</internalNodes>
          <leafValues>
            -3.0630600452423096e-01 4.7688639163970947e-01</leafValues></_>
        <_>
          <internalNodes>
            0 -1 110 -588455776 -408059983 -327537718 -187447759
            -1155219494 -411787917 358678159 -750317861</internalNodes>
          <leafValues>
            -2.4652776122093201e-01 6.0887897014617920e-01</leafValues></_>
        <_>
          <internalNodes>
            0 -1 154 -234165016 -597987912 746349465 1563292231
            528127634 396655964 1999431627 285452063</internalNodes>
          <leafValues>
            -3.1223499774932861e-01 4.6968382596969604e-01</leafValues></_>
        <_>
          <internalNodes>
            0 -1 118 -673547234 -323448651 -1031552541 306331835
            -253166841 -2104909692 -2073435264 38927283</internalNodes>
          <leafValues>
            -4.2348700761795044e-01 3.6570438742637634e-01</leafValues></_>
        <_>
          <internalNodes>
            0 -1 6 -1973229342 -1969233780 587629524 212222150
            -1406590826 1635991864 -116865733 271204747</internalNodes>
          <leafValues>
            -6.1072438955307007e-01 2.5933119654655457e-01</leafValues></_>
        <_>
          <internalNodes>
            0 -1 48 -35660817 -162697576 -340259672 1095392906 189650402
            1551335009 318028168 -606110726</internalNodes>
          <leafValues>
            -2.8611361980438232e-01 5.6440514326095581e-01</leafValues></_></weakClassifiers></_>
    <!-- stage 5 -->
    <_>
      <maxWeakCount>12</maxWeakCount>
      <stageThreshold>-8.5245412588119507e-01</stageThreshold>
      <weakClassifiers>
        <_>
          <internalNodes>
            0 -1 97 37230692 -1342212417 -163849 -1145077763 -41089
            -8388611 -1090637826 -1347535119</internalNodes>
          <leafValues>
            -3.1007751822471619e-01 5.5705302953720093e-01</leafValues></_>
        <_>
          <internalNodes>
            0 -1 134 762844469 1873805296 -1094713347 -67191133 -524419
            -1075859461 -293931781 -1153683492</internalNodes>
          <leafValues>
            -3.4429630637168884e-01 4.6641752123832703e-01</leafValues></_>
        <_>
          <internalNodes>
            0 -1 62 788012748 -1174677230 -129528013 -406919719
            -123088134 -71155707 -612435925 -1665396044</internalNodes>
          <leafValues>
            -4.8247969150543213e-01 3.3193811774253845e-01</leafValues></_>
        <_>
          <internalNodes>
            0 -1 82 -1208952456 -1008278616 -266256093 -225491505
            210944496 -915165101 -1295881317 -1444400900</internalNodes>
          <leafValues>
            -5.9133732318878174e-01 2.7525690197944641e-01</leafValues></_>
        <_>
          <internalNodes>
            0 -1 93 -2095445856 -1031402976 -803646356 987566583
            -1699178495 -2011467678 1479586032 -359107344</internalNodes>
          <leafValues>
            -4.3758267164230347e-01 4.1300445795059204e-01</leafValues></_>
        <_>
          <internalNodes>
            0 -1 100 169607256 -1466424280 -62338052 -765279504
            -2111692796 -435675096 -1421155673 -346519316</internalNodes>
          <leafValues>
            -4.4120237231254578e-01 4.0197360515594482e-01</leafValues></_>
        <_>
          <internalNodes>
            0 -1 95 416417818 -1864441351 -1507214411 -20431621
            -1711762408 -671711491 -1307010317 -625068848</internalNodes>
          <leafValues>
            -3.2542264461517334e-01 5.3035241365432739e-01</leafValues></_>
        <_>
          <internalNodes>
            0 -1 143 638464512 -423943962 548706675 1642893965
            -1108732348 -1598855538 -1399143503 -1225356160</internalNodes>
          <leafValues>
            -4.3800437450408936e-01 4.0380203723907471e-01</leafValues></_>
        <_>
          <internalNodes>
            0 -1 119 687145114 -286781773 -1231086058 -2072023185
            -1226653660 -92867081 -1367935372 -71649808</internalNodes>
          <leafValues>
            -3.6741426587104797e-01 4.9383080005645752e-01</leafValues></_>
        <_>
          <internalNodes>
            0 -1 115 -1229288758 -1473085848 -193991005 1919925884
            -1610664652 -465387941 -440489996 -1247511</internalNodes>
          <leafValues>
            -3.4486231207847595e-01 5.5821603536605835e-01</leafValues></_>
        <_>
          <internalNodes>
            0 -1 127 -1088941724 -262602280 -1725873891 -265731599
            -1744041455 -65060665 1936485277 -1096282896</internalNodes>
          <leafValues>
            -5.8745729923248291e-01 3.7942051887512207e-01</leafValues></_>
        <_>
          <internalNodes>
            0 -1 81 -1541976912 -497361168 259913139 -1158958163
            -1711725231 -1669341228 116443876 -335872856</internalNodes>
          <leafValues>
            -3.7846425175666809e-01 5.1165318489074707e-01</leafValues></_></weakClassifiers></_>
    <!-- stage 6 -->
    <_>
      <maxWeakCount>14</maxWeakCount>
      <stageThreshold>-8.4708756208419800e-01</stageThreshold>
      <weakClassifiers>
        <_>
          <internalNodes>
            0 -1 33 -16754560 1032387968 -352392480 1239284448
            1712445662 -540116153 -872925953 -537919677</internalNodes>
          <leafValues>
            -2.6648351550102234e-01 5.2552819252014160e-01</leafValues></_>
        <_>
          <internalNodes>
            0 -1 34 648834412 -905656432 -1319740524 -958118432
            277457884 -1383013333 -374583022 216814160</internalNodes>
          <leafValues>
            -5.5546689033508301e-01 2.4474734067916870e-01</leafValues></_>
        <_>
          <internalNodes>
            0 -1 69 -1321709360 1109395968 -588913552 -745980744
            -1365469696 -1967833722 -1264539992 -1399158</internalNodes>
          <leafValues>
            -2.6459103822708130e-01 4.7034382820129395e-01</leafValues></_>
        <_>
          <internalNodes>
            0 -1 86 -1729885984 -999805342 -50925865 -47609504 808856608
            -1499633130 -328301405 -78930238</internalNodes>
          <leafValues>
            -2.8991708159446716e-01 4.5092290639877319e-01</leafValues></_>
        <_>
          <internalNodes>
            0 -1 108 -714506058 -503638415 -1300308368 -791451799
            -1161245040 -931258511 -137976374 -6638149</internalNodes>
          <leafValues>
            -2.4390617012977600e-01 5.6551641225814819e-01</leafValues></_>
        <_>
          <internalNodes>
            0 -1 140 -1634041475 1016811623 -1608396670 703812903
            -1959382668 1833132474 384874432 733702248</internalNodes>
          <leafValues>
            -4.1027358174324036e-01 3.2641056180000305e-01</leafValues></_>
        <_>
          <internalNodes>
            0 -1 141 -792326976 -612421884 -1568691585 -671228360
            -26298344 -1327589401 -541788518 -67205938</internalNodes>
          <leafValues>
            -2.4964621663093567e-01 5.6090742349624634e-01</leafValues></_>
        <_>
          <internalNodes>
            0 -1 104 799741441 1659878482 555040382 -1371989791
            1565552369 -874887326 17198709 -2022050210</internalNodes>
          <leafValues>
            -3.6701136827468872e-01 3.7710532546043396e-01</leafValues></_>
        <_>
          <internalNodes>
            0 -1 85 -1178693430 -427684286 469500394 -792141084
            -454783352 659978068 652583873 -620059311</internalNodes>
          <leafValues>
            -3.3060047030448914e-01 4.2008298635482788e-01</leafValues></_>
        <_>
          <internalNodes>
            0 -1 43 -2103181232 -776641472 1005367411 -68464466
            1732771846 -2129499460 -1683164181 -70531528</internalNodes>
          <leafValues>
            -2.7740982174873352e-01 5.1177465915679932e-01</leafValues></_>
        <_>
          <internalNodes>
            0 -1 122 -1993161526 -269500212 -155361950 -238109263
            -1363758064 -2135672014 -1749635198 -207991663</internalNodes>
          <leafValues>
            -3.1904435157775879e-01 4.6235623955726624e-01</leafValues></_>
        <_>
          <internalNodes>
            0 -1 109 -1743649792 -1935516062 -285344602 -251802011
            358651410 14516069 -1121651117 -81083691</internalNodes>
          <leafValues>
            -3.7070432305335999e-01 4.1703674197196960e-01</leafValues></_>
        <_>
          <internalNodes>
            0 -1 45 -1720810778 -362700816 1935027963 -95715626
            -2122857260 -1501669404 -286225770 -1152653364</internalNodes>
          <leafValues>
            -2.9600682854652405e-01 5.3284037113189697e-01</leafValues></_>
        <_>
          <internalNodes>
            0 -1 94 152906142 -1532374648 807245967 1651018109 302665751
            1904419496 -363278346 -1573882863</internalNodes>
          <leafValues>
            -4.1706538200378418e-01 3.8176175951957703e-01</leafValues></_></weakClassifiers></_>
    <!-- stage 7 -->
    <_>
      <maxWeakCount>16</maxWeakCount>
      <stageThreshold>-1.0704319477081299e+00</stageThreshold>
      <weakClassifiers>
        <_>
          <internalNodes>
            0 -1 64 -62123008 -4851727 -269005216 -1074401415 -25334202
            -68059329 -546361657 -822083614</internalNodes>
          <leafValues>
            -2.3703703284263611e-01 5.4429221153259277e-01</leafValues></_>
        <_>
          <internalNodes>
            0 -1 55 -1199467178 -745204907 -964110516 -133197404
            -644771634 1665226897 -207823984 41687428</internalNodes>
          <leafValues>
            -4.3967062234878540e-01 2.6521992683410645e-01</leafValues></_>
        <_>
          <internalNodes>
            0 -1 40 168314048 -2147108470 -636331899 566542387
            -900666200 -175962495 -2136905294 -1913792721</internalNodes>
          <leafValues>
            -4.7293645143508911e-01 2.0907494425773621e-01</leafValues></_>
        <_>
          <internalNodes>
            0 -1 160 1492391413 1442516392 -1626149199 -92329896
            -2059783036 -1959788935 -990816117 961043198</internalNodes>
          <leafValues>
            -2.7881261706352234e-01 3.8232955336570740e-01</leafValues></_>
        <_>
          <internalNodes>
            0 -1 111 419434709 434056315 -1618518027 -1965259423
            1295814622 -9290186 -1791059345 1376669363</internalNodes>
          <leafValues>
            -3.2550317049026489e-01 3.3923602104187012e-01</leafValues></_>
        <_>
          <internalNodes>
            0 -1 163 355075321 -682331590 1901156495 381748109 587336109
            -21296984 -1817122293 689446164</internalNodes>
          <leafValues>
            -3.6264482140541077e-01 3.1045371294021606e-01</leafValues></_>
        <_>
          <internalNodes>
            0 -1 130 -621938172 242743037 -8552590 1225418869 -318194332
            -1220848176 -1632707320 -1342266468</internalNodes>
          <leafValues>
            -3.1418907642364502e-01 3.6888363957405090e-01</leafValues></_>
        <_>
          <internalNodes>
            0 -1 71 532437467 1970810591 2080152383 1597594198
            -1097851918 -152035343 231999474 -1543999830</internalNodes>
          <leafValues>
            -2.8226962685585022e-01 4.5715633034706116e-01</leafValues></_>
        <_>
          <internalNodes>
            0 -1 28 1381429868 -494824888 1078095918 -668799333
            1439831446 643170779 -565049695 476603368</internalNodes>
          <leafValues>
            -5.2014112472534180e-01 2.3790442943572998e-01</leafValues></_>
        <_>
          <internalNodes>
            0 -1 91 1502093804 -687852134 -1573853588 -1877243247
            -1765653876 -1420214006 562219683 1510615718</internalNodes>
          <leafValues>
            -3.8612315058708191e-01 3.2019492983818054e-01</leafValues></_>
        <_>
          <internalNodes>
            0 -1 144 1512053044 -1973471744 -2130171589 2104106573
            -1055980450 -1540857855 163741718 1855859877</internalNodes>
          <leafValues>
            -4.4607326388359070e-01 2.6351130008697510e-01</leafValues></_>
        <_>
          <internalNodes>
            0 -1 155 314064120 -1177959244 1543565670 611408152
            1266811312 -12058560 463473547 247466365</internalNodes>
          <leafValues>
            -4.5413738489151001e-01 2.7923208475112915e-01</leafValues></_>
        <_>
          <internalNodes>
            0 -1 106 -642176736 -256737828 352627183 1880965513
            -1429733104 -280020945 -391096722 -1693536117</internalNodes>
          <leafValues>
            -4.0123632550239563e-01 3.2055565714836121e-01</leafValues></_>
        <_>
          <internalNodes>
            0 -1 21 420493428 -745594823 -1995437881 1285972680
            -1333224229 1623933277 17842747 470548594</internalNodes>
          <leafValues>
            -5.2118301391601562e-01 2.5108227133750916e-01</leafValues></_>
        <_>
          <internalNodes>
            0 -1 161 420484248 -32236650 -784294827 338952357
            -1340549972 -1384118878 305483947 747243816</internalNodes>
          <leafValues>
            -4.3076434731483459e-01 3.2659637928009033e-01</leafValues></_>
        <_>
          <internalNodes>
            0 -1 72 1015040129 1542934205 1454175605 -748707927
            2144772751 -269009929 -1116783002 -1892643032</internalNodes>
          <leafValues>
            -3.0011594295501709e-01 4.6836316585540771e-01</leafValues></_></weakClassifiers></_>
    <!-- stage 8 -->
    <_>
      <maxWeakCount>17</maxWeakCount>
      <stageThreshold>-7.4543738365173340e-01</stageThreshold>
      <weakClassifiers>
        <_>
          <internalNodes>
            0 -1 3 746641536 1846521578 1223588590 1153728255 -19604325
            -16785921 -424088326 1212120831</internalNodes>
          <leafValues>
            -2.6465928554534912e-01 4.9261292815208435e-01</leafValues></_>
        <_>
          <internalNodes>
            0 -1 92 -32451608 -680972983 340462755 1899206797
            -2092395826 -2050929674 1220993003 1002046651</internalNodes>
          <leafValues>
            -2.3540633916854858e-01 4.1919749975204468e-01</leafValues></_>
        <_>
          <internalNodes>
            0 -1 147 1427135160 -1222013400 494263780 275066081
            -742591550 -1033964563 1999923931 1506479338</internalNodes>
          <leafValues>
            -2.9639208316802979e-01 3.4892806410789490e-01</leafValues></_>
        <_>
          <internalNodes>
            0 -1 53 -541068085 670037616 412906530 2039312771 -29054257
            1852796776 43688671 2060415624</internalNodes>
          <leafValues>
            -2.5534334778785706e-01 4.1992336511611938e-01</leafValues></_>
        <_>
          <internalNodes>
            0 -1 80 -248983300 -614989272 525988665 353838761
            -2146575911 1035689780 1941650191 1368623806</internalNodes>
          <leafValues>
            -2.6985645294189453e-01 4.1673895716667175e-01</leafValues></_>
        <_>
          <internalNodes>
            0 -1 65 -212562304 -208597583 -517891516 -883891583
            -1877972404 -1576304630 -1603738636 1659958221</internalNodes>
          <leafValues>
            -6.2569171190261841e-01 1.8021070957183838e-01</leafValues></_>
        <_>
          <internalNodes>
            0 -1 39 -1828698456 -2096037488 1094766674 -103734069
            270219434 319832264 146901423 1061785787</internalNodes>
          <leafValues>
            -3.6325910687446594e-01 3.3546420931816101e-01</leafValues></_>
        <_>
          <internalNodes>
            0 -1 142 640177880 1540189289 -1226105155 1366760754
            912363706 179336697 406644683 193662603</internalNodes>
          <leafValues>
            -3.0750232934951782e-01 3.7247261404991150e-01</leafValues></_>
        <_>
          <internalNodes>
            0 -1 99 1939882216 -580960224 1073873488 22931969
            -1039472104 807109667 672535107 311623785</internalNodes>
          <leafValues>
            -4.4719347357749939e-01 2.6360818743705750e-01</leafValues></_>
        <_>
          <internalNodes>
            0 -1 17 -776677302 1133085548 1083474022 -882916596
            1907447860 -512343391 1814799055 -1179022606</internalNodes>
          <leafValues>
            -4.7832092642784119e-01 2.5022503733634949e-01</leafValues></_>
        <_>
          <internalNodes>
            0 -1 139 -863875928 339542609 135364738 425492601 652461120
            -1819576261 318774014 414853771</internalNodes>
          <leafValues>
            -3.8442683219909668e-01 3.4323149919509888e-01</leafValues></_>
        <_>
          <internalNodes>
            0 -1 76 -1623985446 -650973469 -16876959 1400499692
            561387170 -1438836756 -1002637702 -77640034</internalNodes>
          <leafValues>
            -2.2900846600532532e-01 5.6397324800491333e-01</leafValues></_>
        <_>
          <internalNodes>
            0 -1 26 839912696 90900673 560312159 -1611592879 -1272291620
            -890863652 635448490 1001070543</internalNodes>
          <leafValues>
            -3.4187787771224976e-01 3.7608006596565247e-01</leafValues></_>
        <_>
          <internalNodes>
            0 -1 138 -1128525289 -1238024667 2067394001 -637982795
            -1111822372 -1075679920 -1515205701 -1089990215</internalNodes>
          <leafValues>
            -2.9074692726135254e-01 4.5905926823616028e-01</leafValues></_>
        <_>
          <internalNodes>
            0 -1 24 -574092100 -139523040 267267325 427289758
            -1913318150 176142943 -921034774 472494339</internalNodes>
          <leafValues>
            -3.3858624100685120e-01 3.7951231002807617e-01</leafValues></_>
        <_>
          <internalNodes>
            0 -1 56 -617554727 1794403345 1272467360 -617735110
            1951152396 -461612610 796782284 -1223720008</internalNodes>
          <leafValues>
            -2.9747790098190308e-01 4.5165616273880005e-01</leafValues></_>
        <_>
          <internalNodes>
            0 -1 151 2059174360 -258623320 1826224659 1582642915
            -160375112 -170770562 71189400 264848383</internalNodes>
          <leafValues>
            -3.3330813050270081e-01 3.9930462837219238e-01</leafValues></_></weakClassifiers></_>
    <!-- stage 9 -->
    <_>
      <maxWeakCount>17</maxWeakCount>
      <stageThreshold>-8.7615710496902466e-01</stageThreshold>
      <weakClassifiers>
        <_>
          <internalNodes>
            0 -1 27 738197544 747319294 523201775 661097446 -316650097
            1601142507 -933921849 250996719</internalNodes>
          <leafValues>
            -2.6279863715171814e-01 4.7804474830627441e-01</leafValues></_>
        <_>
          <internalNodes>
            0 -1 120 1418506480 1469713528 753676242 1038972406
            815302809 -1999339668 174912426 -1075115624</internalNodes>
          <leafValues>
            -2.1448697149753571e-01 4.3152570724487305e-01</leafValues></_>
        <_>
          <internalNodes>
            0 -1 13 -2069568370 -1400524388 -586739386 -677965650
            -226013607 -352255925 -1607767349 52494467</internalNodes>
          <leafValues>
            -3.5987129807472229e-01 2.8641799092292786e-01</leafValues></_>
        <_>
          <internalNodes>
            0 -1 47 1001046240 -635749272 -1250054083 -136712875
            -1594845766 -1879884178 -1616602309 -69236327</internalNodes>
          <leafValues>
            -1.9078385829925537e-01 5.3834772109985352e-01</leafValues></_>
        <_>
          <internalNodes>
            0 -1 42 -1912070952 -621579936 448005291 -185248591
            -1821207589 -1569700324 877176814 -1626616339</internalNodes>
          <leafValues>
            -2.4468091130256653e-01 4.2620116472244263e-01</leafValues></_>
        <_>
          <internalNodes>
            0 -1 31 -737564432 -1628639708 911871735 1604949784
            -1238888632 -1769540108 -59581993 -108300721</internalNodes>
          <leafValues>
            -2.3967754840850830e-01 4.5353281497955322e-01</leafValues></_>
        <_>
          <internalNodes>
            0 -1 153 1897672921 1093280957 1053710527 1910463567
            -1510351460 -1486587561 754040298 -1189133974</internalNodes>
          <leafValues>
            -2.2299557924270630e-01 4.9607980251312256e-01</leafValues></_>
        <_>
          <internalNodes>
            0 -1 61 1697776831 934848240 1945883582 899479392 343707756
            2105472910 357451212 229336510</internalNodes>
          <leafValues>
            -3.1471091508865356e-01 3.6310201883316040e-01</leafValues></_>
        <_>
          <internalNodes>
            0 -1 38 173279904 -730310676 1115663479 819814043 1047987224
            -1432373294 582151842 -1166915173</internalNodes>
          <leafValues>
            -3.3430525660514832e-01 3.4807500243186951e-01</leafValues></_>
        <_>
          <internalNodes>
            0 -1 158 -569786149 -651742013 -1661045641 -12731687
            -1688751940 -1819319722 -1225664888 -887113525</internalNodes>
          <leafValues>
            -1.7509327828884125e-01 6.4492100477218628e-01</leafValues></_>
        <_>
          <internalNodes>
            0 -1 78 -1297213294 -144168716 -1896554896 -751999370
            -1074149736 -314508698 65816502 -1691742915</internalNodes>
          <leafValues>
            -2.7538853883743286e-01 4.3291509151458740e-01</leafValues></_>
        <_>
          <internalNodes>
            0 -1 121 -761708444 -115441535 16913730 1095106569
            1857182692 -1023311709 1865021988 225092220</internalNodes>
          <leafValues>
            -5.0268673896789551e-01 2.4243572354316711e-01</leafValues></_>
        <_>
          <internalNodes>
            0 -1 103 563450588 437109256 1350977545 251724628
            -1878574456 1955373699 294629893 536694715</internalNodes>
          <leafValues>
            -3.4322229027748108e-01 3.8716596364974976e-01</leafValues></_>
        <_>
          <internalNodes>
            0 -1 146 -1978019422 1722167180 -5258213 -659870056
            2050501796 -1654202416 1533588131 -1356897126</internalNodes>
          <leafValues>
            -3.2019594311714172e-01 4.0690758824348450e-01</leafValues></_>
        <_>
          <internalNodes>
            0 -1 79 -656845608 -874354526 1056189681 -1649642149
            -419029286 -447393948 -1233221929 -170542</internalNodes>
          <leafValues>
            -2.2197535634040833e-01 5.3748899698257446e-01</leafValues></_>
        <_>
          <internalNodes>
            0 -1 73 -1725904680 1761371708 758783317 -548053877
            -1149861893 804597726 411555042 -1620505129</internalNodes>
          <leafValues>
            -3.0678164958953857e-01 4.1840344667434692e-01</leafValues></_>
        <_>
          <internalNodes>
            0 -1 29 646473400 -1897135980 -988786375 -1943271908
            1660973325 -808501237 101477258 538784512</internalNodes>
          <leafValues>
            -6.3135325908660889e-01 2.2849810123443604e-01</leafValues></_></weakClassifiers></_>
    <!-- stage 10 -->
    <_>
      <maxWeakCount>15</maxWeakCount>
      <stageThreshold>-8.0751997232437134e-01</stageThreshold>
      <weakClassifiers>
        <_>
          <internalNodes>
            0 -1 84 -419440896 1002175935 1852628480 -1315680 -95063040
            -541597837 2070116160 -797639372</internalNodes>
          <leafValues>
            -2.9346314072608948e-01 5.3090751171112061e-01</leafValues></_>
        <_>
          <internalNodes>
            0 -1 5 -857276742 -506150136 -993615460 -150680828
            -1067924584 -292191742 -700915396 275178900</internalNodes>
          <leafValues>
            -5.2317881584167480e-01 2.5849366188049316e-01</leafValues></_>
        <_>
          <internalNodes>
            0 -1 89 217923920 -1599832034 -1064972089 747219222
            -904436729 -930577774 -857683436 -827092738</internalNodes>
          <leafValues>
            -4.0010824799537659e-01 3.2386884093284607e-01</leafValues></_>
        <_>
          <internalNodes>
            0 -1 30 -760492518 -438390688 -812569312 -2008132730
            344331156 42480134 1905457764 1416690236</internalNodes>
          <leafValues>
            -5.7675474882125854e-01 1.8731261789798737e-01</leafValues></_>
        <_>
          <internalNodes>
            0 -1 131 -814265837 176982905 1051459248 1349025640
            -537413883 -915032642 -279321086 -289410073</internalNodes>
          <leafValues>
            -3.1611740589141846e-01 4.0878868103027344e-01</leafValues></_>
        <_>
          <internalNodes>
            0 -1 19 539896566 1411442662 -519435001 -1378174844
            1599306228 -6835956 1116801255 1563870812</internalNodes>
          <leafValues>
            -4.6447715163230896e-01 2.5257694721221924e-01</leafValues></_>
        <_>
          <internalNodes>
            0 -1 60 1046341103 846036986 -1695006847 -82378 1292135134
            -1713616987 759813180 -155190909</internalNodes>
          <leafValues>
            -2.2562897205352783e-01 5.4402077198028564e-01</leafValues></_>
        <_>
          <internalNodes>
            0 -1 20 1920982570 143499574 -1039003514 -1935408702
            387028232 98046064 -632851456 1748415399</internalNodes>
          <leafValues>
            -5.4719221591949463e-01 2.3689183592796326e-01</leafValues></_>
        <_>
          <internalNodes>
            0 -1 105 1823926298 34209527 -1401536741 -869564418
            1219341872 -1846757458 305591235 -547368581</internalNodes>
          <leafValues>
            -3.4546703100204468e-01 3.6826583743095398e-01</leafValues></_>
        <_>
          <internalNodes>
            0 -1 152 -1905035257 1059943610 197047577 -344086737
            422952153 -1890615681 1571816012 -46987360</internalNodes>
          <leafValues>
            -2.9684054851531982e-01 4.3728616833686829e-01</leafValues></_>
        <_>
          <internalNodes>
            0 -1 0 76478212 -961486573 -1324805353 790398472 -833305187
            -72376221 924567566 -354686737</internalNodes>
          <leafValues>
            -3.8187471032142639e-01 3.4951484203338623e-01</leafValues></_>
        <_>
          <internalNodes>
            0 -1 75 -1657154342 84357410 1410220228 1015530115
            -1442440634 -83316640 1348634631 1519314503</internalNodes>
          <leafValues>
            -4.1601151227951050e-01 3.4818887710571289e-01</leafValues></_>
        <_>
          <internalNodes>
            0 -1 145 1043807860 790607431 -2065644475 -539905831
            1266684280 -2004729728 -731897019 1015665992</internalNodes>
          <leafValues>
            -5.1807361841201782e-01 2.4569018185138702e-01</leafValues></_>
        <_>
          <internalNodes>
            0 -1 129 -258263229 -2089373090 1601058301 5173341 677774817
            485621481 1010168864 -652137757</internalNodes>
          <leafValues>
            -3.3592200279235840e-01 4.0421944856643677e-01</leafValues></_>
        <_>
          <internalNodes>
            0 -1 128 -1417236478 619182634 -1073306623 1447641631
            -443268608 1243324442 38388720 2123089375</internalNodes>
          <leafValues>
            -4.1860198974609375e-01 3.1865996122360229e-01</leafValues></_></weakClassifiers></_>
    <!-- stage 11 -->
    <_>
      <maxWeakCount>15</maxWeakCount>
      <stageThreshold>-9.8913812637329102e-01</stageThreshold>
      <weakClassifiers>
        <_>
          <internalNodes>
            0 -1 74 -574309896 -1073947276 535674464 -883567792
            -293811042 -1107296900 -378249379 532423908</internalNodes>
          <leafValues>
            -2.6552179455757141e-01 5.3544360399246216e-01</leafValues></_>
        <_>
          <internalNodes>
            0 -1 16 585647540 771030732 -8552449 -8705090 1123990901
            -923800321 1065023478 -540076548</internalNodes>
          <leafValues>
            -3.0649235844612122e-01 3.9895370602607727e-01</leafValues></_>
        <_>
          <internalNodes>
            0 -1 67 -1087778352 44500160 1260491594 -16709984
            -1827999026 456290511 209909342 386404752</internalNodes>
          <leafValues>
            -3.5051703453063965e-01 3.2499513030052185e-01</leafValues></_>
        <_>
          <internalNodes>
            0 -1 117 292923797 1233671612 767388925 -1760740112
            1382612936 -1388963842 729096445 792662196</internalNodes>
          <leafValues>
            -3.0086112022399902e-01 3.9419102668762207e-01</leafValues></_>
        <_>
          <internalNodes>
            0 -1 112 253177858 164170176 -1056142515 -553353216
            1763830215 -1051907922 143602837 963404757</internalNodes>
          <leafValues>
            -4.6837109327316284e-01 2.5698810815811157e-01</leafValues></_>
        <_>
          <internalNodes>
            0 -1 57 1069563199 2066526620 895694709 -136786668
            -392934946 -1766794052 14984625 -68411372</internalNodes>
          <leafValues>
            -2.5440856814384460e-01 4.9475228786468506e-01</leafValues></_>
        <_>
          <internalNodes>
            0 -1 70 111163892 -387126084 -1596622349 -1761781080
            868000912 -1510812675 1876358750 -68495856</internalNodes>
          <leafValues>
            -3.1344380974769592e-01 3.9410993456840515e-01</leafValues></_>
        <_>
          <internalNodes>
            0 -1 37 1853886546 -2121531068 -1256096380 329654272
            -389273464 495792305 -1442774094 745818872</internalNodes>
          <leafValues>
            -4.2804744839668274e-01 3.0809605121612549e-01</leafValues></_>
        <_>
          <internalNodes>
            0 -1 87 353128656 -405778280 -229273598 595560104 587782274
            -845545266 2076463899 721688801</internalNodes>
          <leafValues>
            -4.4422581791877747e-01 2.8477135300636292e-01</leafValues></_>
        <_>
          <internalNodes>
            0 -1 23 219075792 532680724 422691143 1806508294 126112746
            965242105 564347593 1008214484</internalNodes>
          <leafValues>
            -4.9124488234519958e-01 2.6442429423332214e-01</leafValues></_>
        <_>
          <internalNodes>
            0 -1 150 -2120141515 -1355528331 -1531282007 -304620175
            -1915583589 -1413523499 986107785 -1279120824</internalNodes>
          <leafValues>
            -2.9765573143959045e-01 4.5879310369491577e-01</leafValues></_>
        <_>
          <internalNodes>
            0 -1 36 670047485 674507632 930574313 1064735485 553441606
            -996573479 328603127 -543419244</internalNodes>
          <leafValues>
            -3.1681066751480103e-01 4.3715506792068481e-01</leafValues></_>
        <_>
          <internalNodes>
            0 -1 113 -89501626 -1532084551 2080097337 -1873117216
            -1548419998 -1636941827 614780658 -224914272</internalNodes>
          <leafValues>
            -3.7709227204322815e-01 3.9741349220275879e-01</leafValues></_>
        <_>
          <internalNodes>
            0 -1 96 2097168 1770538762 135221333 -371969345 319710196
            -1180264401 296489108 -69177312</internalNodes>
          <leafValues>
            -4.8787128925323486e-01 2.8976425528526306e-01</leafValues></_>
        <_>
          <internalNodes>
            0 -1 98 798057706 -76711240 510633632 -208929497 -1821372277
            17020512 1335053735 -1689127271</internalNodes>
          <leafValues>
            -3.4177821874618530e-01 4.2579317092895508e-01</leafValues></_></weakClassifiers></_></stages>
  <features>
    <_>
      <rect>
        0 0 6 8</rect></_>
    <_>
      <rect>
        0 0 8 7</rect></_>
    <_>
      <rect>
        0 0 13 10</rect></_>
    <_>
      <rect>
        0 1 9 9</rect></_>
    <_>
      <rect>
        0 1 11 9</rect></_>
    <_>
      <rect>
        0 1 11 13</rect></_>
    <_>
      <rect>
        0 6 7 4</rect></_>
    <_>
      <rect>
        0 7 4 6</rect></_>
    <_>
      <rect>
        0 7 13 9</rect></_>
    <_>
      <rect>
        0 16 6 8</rect></_>
    <_>
      <rect>
        0 18 1 1</rect></_>
    <_>
      <rect>
        0 19 13 7</rect></_>
    <_>
      <rect>
        0 24 9 5</rect></_>
    <_>
      <rect>
        1 0 6 9</rect></_>
    <_>
      <rect>
        1 0 9 13</rect></_>
    <_>
      <rect>
        1 0 11 9</rect></_>
    <_>
      <rect>
        1 1 4 12</rect></_>
    <_>
      <rect>
        1 2 12 7</rect></_>
    <_>
      <rect>
        1 7 7 11</rect></_>
    <_>
      <rect>
        1 10 4 7</rect></_>
    <_>
      <rect>
        1 18 8 3</rect></_>
    <_>
      <rect>
        1 21 1 3</rect></_>
    <_>
      <rect>
        1 21 13 6</rect></_>
    <_>
      <rect>
        1 25 4 5</rect></_>
    <_>
      <rect>
        1 30 1 1</rect></_>
    <_>
      <rect>
        1 33 1 1</rect></_>
    <_>
      <rect>
        1 36 1 1</rect></_>
    <_>
      <rect>
        2 0 11 7</rect></_>
    <_>
      <rect>
        2 4 8 12</rect></_>
    <_>
      <rect>
        2 6 5 6</rect></_>
    <_>
      <rect>
        2 17 12 7</rect></_>
    <_>
      <rect>
        3 0 1 1</rect></_>
    <_>
      <rect>
        3 1 1 1</rect></_>
    <_>
      <rect>
        3 1 11 9</rect></_>
    <_>
      <rect>
        3 5 3 9</rect></_>
    <_>
      <rect>
        3 6 12 11</rect></_>
    <_>
      <rect>
        3 24 2 2</rect></_>
    <_>
      <rect>
        3 25 10 5</rect></_>
    <_>
      <rect>
        3 26 1 1</rect></_>
    <_>
      <rect>
        3 31 1 1</rect></_>
    <_>
      <rect>
        4 0 7 7</rect></_>
    <_>
      <rect>
        4 0 12 11</rect></_>
    <_>
      <rect>
        4 1 1 1</rect></_>
    <_>
      <rect>
        4 3 1 1</rect></_>
    <_>
      <rect>
        4 7 12 11</rect></_>
    <_>
      <rect>
        4 13 1 1</rect></_>
    <_>
      <rect>
        4 30 1 1</rect></_>
    <_>
      <rect>
        4 35 1 1</rect></_>
    <_>
      <rect>
        5 27 6 4</rect></_>
    <_>
      <rect>
        5 32 1 1</rect></_>
    <_>
      <rect>
        6 23 4 3</rect></_>
    <_>
      <rect>
        7 0 11 8</rect></_>
    <_>
      <rect>
        7 1 9 7</rect></_>
    <_>
      <rect>
        7 7 8 6</rect></_>
    <_>
      <rect>
        7 9 7 5</rect></_>
    <_>
      <rect>
        7 13 11 9</rect></_>
    <_>
      <rect>
        7 28 4 4</rect></_>
    <_>
      <rect>
        7 31 4 3</rect></_>
    <_>
      <rect>
        7 35 1 1</rect></_>
    <_>
      <rect>
        8 0 10 8</rect></_>
    <_>
      <rect>
        8 24 7 5</rect></_>
    <_>
      <rect>
        8 28 7 4</rect></_>
    <_>
      <rect>
        9 3 1 6</rect></_>
    <_>
      <rect>
        10 0 10 8</rect></_>
    <_>
      <rect>
        10 0 10 9</rect></_>
    <_>
      <rect>
        10 0 10 13</rect></_>
    <_>
      <rect>
        10 1 7 6</rect></_>
    <_>
      <rect>
        10 9 4 4</rect></_>
    <_>
      <rect>
        10 18 5 4</rect></_>
    <_>
      <rect>
        10 20 1 1</rect></_>
    <_>
      <rect>
        10 21 1 1</rect></_>
    <_>
      <rect>
        10 30 4 3</rect></_>
    <_>
      <rect>
        10 34 1 1</rect></_>
    <_>
      <rect>
        10 34 1 2</rect></_>
    <_>
      <rect>
        11 1 6 13</rect></_>
    <_>
      <rect>
        11 10 6 3</rect></_>
    <_>
      <rect>
        11 13 1 1</rect></_>
    <_>
      <rect>
        11 13 6 5</rect></_>
    <_>
      <rect>
        11 20 1 1</rect></_>
    <_>
      <rect>
        11 26 1 1</rect></_>
    <_>
      <rect>
        12 0 1 1</rect></_>
    <_>
      <rect>
        12 20 1 1</rect></_>
    <_>
      <rect>
        13 3 1 12</rect></_>
    <_>
      <rect>
        13 4 9 11</rect></_>
    <_>
      <rect>
        13 9 9 6</rect></_>
    <_>
      <rect>
        13 16 1 1</rect></_>
    <_>
      <rect>
        14 23 1 1</rect></_>
    <_>
      <rect>
        15 10 4 3</rect></_>
    <_>
      <rect>
        15 18 1 1</rect></_>
    <_>
      <rect>
        16 0 8 8</rect></_>
    <_>
      <rect>
        16 1 8 13</rect></_>
    <_>
      <rect>
        16 9 3 3</rect></_>
    <_>
      <rect>
        16 13 2 2</rect></_>
    <_>
      <rect>
        16 16 1 1</rect></_>
    <_>
      <rect>
        17 6 3 2</rect></_>
    <_>
      <rect>
        17 8 1 1</rect></_>
    <_>
      <rect>
        17 28 1 2</rect></_>
    <_>
      <rect>
        18 1 1 7</rect></_>
    <_>
      <rect>
        18 11 3 3</rect></_>
    <_>
      <rect>
        18 12 2 3</rect></_>
    <_>
      <rect>
        18 15 1 1</rect></_>
    <_>
      <rect>
        18 17 1 1</rect></_>
    <_>
      <rect>
        18 19 1 1</rect></_>
    <_>
      <rect>
        18 25 3 3</rect></_>
    <_>
      <rect>
        19 1 4 2</rect></_>
    <_>
      <rect>
        19 1 6 3</rect></_>
    <_>
      <rect>
        19 2 7 4</rect></_>
    <_>
      <rect>
        19 12 3 2</rect></_>
    <_>
      <rect>
        19 13 1 1</rect></_>
    <_>
      <rect>
        19 14 1 1</rect></_>
    <_>
      <rect>
        19 22 1 1</rect></_>
    <_>
      <rect>
        20 0 1 1</rect></_>
    <_>
      <rect>
        20 0 6 5</rect></_>
    <_>
      <rect>
        20 13 1 1</rect></_>
    <_>
      <rect>
        20 14 2 2</rect></_>
    <_>
      <rect>
        20 15 1 1</rect></_>
    <_>
      <rect>
        20 20 1 1</rect></_>
    <_>
      <rect>
        20 28 5 4</rect></_>
    <_>
      <rect>
        21 14 5 3</rect></_>
    <_>
      <rect>
        21 22 1 1</rect></_>
    <_>
      <rect>
        21 32 1 1</rect></_>
    <_>
      <rect>
        22 10 6 10</rect></_>
    <_>
      <rect>
        22 13 1 1</rect></_>
    <_>
      <rect>
        22 16 1 1</rect></_>
    <_>
      <rect>
        22 16 6 6</rect></_>
    <_>
      <rect>
        22 21 6 6</rect></_>
    <_>
      <rect>
        22 33 1 1</rect></_>
    <_>
      <rect>
        23 8 1 6</rect></_>
    <_>
      <rect>
        23 16 2 1</rect></_>
    <_>
      <rect>
        23 25 5 3</rect></_>
    <_>
      <rect>
        24 16 5 5</rect></_>
    <_>
      <rect>
        24 18 5 2</rect></_>
    <_>
      <rect>
        24 23 1 1</rect></_>
    <_>
      <rect>
        24 23 4 4</rect></_>
    <_>
      <rect>
        25 2 1 4</rect></_>
    <_>
      <rect>
        25 3 5 9</rect></_>
    <_>
      <rect>
        25 28 1 1</rect></_>
    <_>
      <rect>
        25 35 3 1</rect></_>
    <_>
      <rect>
        26 7 2 2</rect></_>
    <_>
      <rect>
        26 13 2 2</rect></_>
    <_>
      <rect>
        26 13 4 9</rect></_>
    <_>
      <rect>
        26 16 1 1</rect></_>
    <_>
      <rect>
        26 32 1 1</rect></_>
    <_>
      <rect>
        28 8 1 1</rect></_>
    <_>
      <rect>
        28 29 2 3</rect></_>
    <_>
      <rect>
        29 0 3 13</rect></_>
    <_>
      <rect>
        29 22 1 1</rect></_>
    <_>
      <rect>
        29 37 1 1</rect></_>
    <_>
      <rect>
        30 1 3 6</rect></_>
    <_>
      <rect>
        31 1 3 3</rect></_>
    <_>
      <rect>
        31 6 3 3</rect></_>
    <_>
      <rect>
        32 37 1 1</rect></_>
    <_>
      <rect>
        33 6 2 2</rect></_>
    <_>
      <rect>
        33 37 1 1</rect></_>
    <_>
      <rect>
        34 33 1 1</rect></_>
    <_>
      <rect>
        34 34 1 1</rect></_>
    <_>
      <rect>
        35 1 1 1</rect></_>
    <_>
      <rect>
        35 33 1 1</rect></_>
    <_>
      <rect>
        36 1 1 1</rect></_>
    <_>
      <rect>
        36 3 1 1</rect></_>
    <_>
      <rect>
        36 12 1 1</rect></_>
    <_>
      <rect>
        36 31 1 1</rect></_>
    <_>
      <rect>
        37 13 1 1</rect></_>
    <_>
      <rect>
        37 29 1 1</rect></_>
    <_>
      <rect>
        37 36 1 1</rect></_></features></cascade>
</opencv_storage>
