<?xml version="1.0"?>
<opencv_storage>
<cascade>
  <stageType>BOOST</stageType>
  <featureType>LBP</featureType>
  <height>30</height>
  <width>30</width>
  <stageParams>
    <boostType>GAB</boostType>
    <minHitRate>9.9500000476837158e-01</minHitRate>
    <maxFalseAlarm>5.0000000000000000e-01</maxFalseAlarm>
    <weightTrimRate>9.4999999999999996e-01</weightTrimRate>
    <maxDepth>1</maxDepth>
    <maxWeakCount>100</maxWeakCount></stageParams>
  <featureParams>
    <maxCatCount>256</maxCatCount>
    <featSize>1</featSize></featureParams>
  <stageNum>12</stageNum>
  <stages>
    <!-- stage 0 -->
    <_>
      <maxWeakCount>5</maxWeakCount>
      <stageThreshold>-1.6379352807998657e+00</stageThreshold>
      <weakClassifiers>
        <_>
          <internalNodes>
            0 -1 6 -33763636 -2230292 -203490818 -393233 -51576850 -1025
            -72679442 -1</internalNodes>
          <leafValues>
            -9.1323125362396240e-01 -1.8258132040500641e-01</leafValues></_>
        <_>
          <internalNodes>
            0 -1 5 -670531584 -5358225 1565571822 -9441553 -1287091
            -6291457 -624951378 -17</internalNodes>
          <leafValues>
            -7.5909286737442017e-01 7.5890339910984039e-02</leafValues></_>
        <_>
          <internalNodes>
            0 -1 49 -196868 -8388739 -134415520 -4391947 -5714612
            2147475453 -368246804 1057029948</internalNodes>
          <leafValues>
            -6.5917825698852539e-01 2.6143270730972290e-01</leafValues></_>
        <_>
          <internalNodes>
            0 -1 28 -540082178 -2081013888 -335610116 -1898512434
            -156161 2042264429 -1750138907 671624200</internalNodes>
          <leafValues>
            -6.4250606298446655e-01 1.9293902814388275e-01</leafValues></_>
        <_>
          <internalNodes>
            0 -1 98 -68953466 -162673054 788463200 -243303689
            -1229662586 1190348284 1456702910 -173304881</internalNodes>
          <leafValues>
            -2.2955997288227081e-01 5.2651953697204590e-01</leafValues></_></weakClassifiers></_>
    <!-- stage 1 -->
    <_>
      <maxWeakCount>9</maxWeakCount>
      <stageThreshold>-1.7503284215927124e+00</stageThreshold>
      <weakClassifiers>
        <_>
          <internalNodes>
            0 -1 6 -2097176 -7602200 -203490266 -541070357 -44695570
            -67110993 -1050113 -1</internalNodes>
          <leafValues>
            -8.7947517633438110e-01 -4.1749900579452515e-01</leafValues></_>
        <_>
          <internalNodes>
            0 -1 3 -859246934 -336597088 -453183242 -420480049 -10101763
            -268469593 -452989697 -2099521</internalNodes>
          <leafValues>
            -6.5504568815231323e-01 6.1753150075674057e-02</leafValues></_>
        <_>
          <internalNodes>
            0 -1 106 -17381808 -3147937 1945952100 -196623 -537178284
            -9475209 -109265100 -673341919</internalNodes>
          <leafValues>
            -5.1521211862564087e-01 1.9696983695030212e-01</leafValues></_>
        <_>
          <internalNodes>
            0 -1 26 -754923328 -758164320 1358965125 2144670064
            -1705465701 -1972493567 981520030 323960971</internalNodes>
          <leafValues>
            -3.6800438165664673e-01 3.1501549482345581e-01</leafValues></_>
        <_>
          <internalNodes>
            0 -1 4 209716224 -1351687185 2008001998 -537930516 -82552498
            2129787626 -604785914 -1342832915</internalNodes>
          <leafValues>
            -6.8172287940979004e-01 1.9323164224624634e-01</leafValues></_>
        <_>
          <internalNodes>
            0 -1 92 -209538072 -741760784 511618085 1934434260 -4209202
            129990207 383580843 -604267521</internalNodes>
          <leafValues>
            -2.3280632495880127e-01 5.0200128555297852e-01</leafValues></_>
        <_>
          <internalNodes>
            0 -1 29 -758731874 2087187455 -1075905648 -1374355492
            -713838896 825511694 -445710340 377159640</internalNodes>
          <leafValues>
            -4.9530348181724548e-01 2.2867953777313232e-01</leafValues></_>
        <_>
          <internalNodes>
            0 -1 87 -685572374 -764469904 -152119304 1507793905
            -1128870200 81559532 371515670 -676657989</internalNodes>
          <leafValues>
            -2.9657068848609924e-01 3.9231115579605103e-01</leafValues></_>
        <_>
          <internalNodes>
            0 -1 140 1364381864 -238939702 1422488958 1360352359
            -1642144031 -1598935928 722016203 231416047</internalNodes>
          <leafValues>
            -3.4725102782249451e-01 3.2469967007637024e-01</leafValues></_></weakClassifiers></_>
    <!-- stage 2 -->
    <_>
      <maxWeakCount>9</maxWeakCount>
      <stageThreshold>-1.6316993236541748e+00</stageThreshold>
      <weakClassifiers>
        <_>
          <internalNodes>
            0 -1 91 -1263529248 -890666871 -801540399 -86135136
            -25240376 -1368433294 -68226662 -73402950</internalNodes>
          <leafValues>
            -8.2266402244567871e-01 -4.3756344914436340e-01</leafValues></_>
        <_>
          <internalNodes>
            0 -1 64 2142592320 -43335749 -656431 -4195342 -33939705
            -475006082 -4730969 -272630405</internalNodes>
          <leafValues>
            -5.9105306863784790e-01 6.1759322881698608e-02</leafValues></_>
        <_>
          <internalNodes>
            0 -1 8 -18567256 -287801720 -889409874 -390267468 1073543165
            -302579766 -730710530 1218215636</internalNodes>
          <leafValues>
            -7.2485989332199097e-01 1.2965828180313110e-01</leafValues></_>
        <_>
          <internalNodes>
            0 -1 110 -1850146656 -85108914 -151228301 -236224911
            -1707700224 -1028759976 -1074070314 -1108696872</internalNodes>
          <leafValues>
            -3.0203247070312500e-01 3.5549879074096680e-01</leafValues></_>
        <_>
          <internalNodes>
            0 -1 121 -1699587406 -126784523 708812017 -30314732
            -1146045422 -1778712867 -306513950 -71067494</internalNodes>
          <leafValues>
            -2.5355708599090576e-01 4.2863723635673523e-01</leafValues></_>
        <_>
          <internalNodes>
            0 -1 10 653160506 -1403349602 1706557324 149458116 -87208145
            -20976657 1861628894 1253836524</internalNodes>
          <leafValues>
            -6.3455468416213989e-01 1.6999721527099609e-01</leafValues></_>
        <_>
          <internalNodes>
            0 -1 116 -189264768 -273142888 -1284267968 -94723343
            -1305822684 36180882 -1270436896 -1279835952</internalNodes>
          <leafValues>
            -3.9458024501800537e-01 2.7784770727157593e-01</leafValues></_>
        <_>
          <internalNodes>
            0 -1 82 272173184 -426827508 -355454251 -196916915
            -1778478568 864819284 -1777030405 -1078290471</internalNodes>
          <leafValues>
            -3.4222310781478882e-01 3.0866807699203491e-01</leafValues></_>
        <_>
          <internalNodes>
            0 -1 102 -551431976 -1060075347 -109142028 -4475227
            -1213822908 1606221695 -1250246682 -549788020</internalNodes>
          <leafValues>
            -2.6315772533416748e-01 4.0909308195114136e-01</leafValues></_></weakClassifiers></_>
    <!-- stage 3 -->
    <_>
      <maxWeakCount>12</maxWeakCount>
      <stageThreshold>-1.7680170536041260e+00</stageThreshold>
      <weakClassifiers>
        <_>
          <internalNodes>
            0 -1 94 -41617160 -106219676 920312369 -209719335
            -1225082114 -2029189871 -509282565 -1086623349</internalNodes>
          <leafValues>
            -7.9071885347366333e-01 -4.3521595001220703e-01</leafValues></_>
        <_>
          <internalNodes>
            0 -1 59 -45033368 -1477580062 -890257631 1559231361
            -176891666 -5522719 -17760513 -73932365</internalNodes>
          <leafValues>
            -5.8235639333724976e-01 1.5407552011311054e-02</leafValues></_>
        <_>
          <internalNodes>
            0 -1 109 2122201884 1004534458 889499620 -7924779 -212177084
            -1636077835 2135031344 45678132</internalNodes>
          <leafValues>
            -5.9574574232101440e-01 1.2787303328514099e-01</leafValues></_>
        <_>
          <internalNodes>
            0 -1 34 320885776 -10850172 -1706426135 1504197277
            1026122120 569919928 472143466 2131443514</internalNodes>
          <leafValues>
            -3.7463733553886414e-01 2.3883999884128571e-01</leafValues></_>
        <_>
          <internalNodes>
            0 -1 71 830476480 2040395253 -70711313 -1192137654
            -1611247418 -77685885 -1495344403 786659314</internalNodes>
          <leafValues>
            -4.5382779836654663e-01 1.9237451255321503e-01</leafValues></_>
        <_>
          <internalNodes>
            0 -1 16 -53058822 -1185261857 -98928164 -1807860226
            -1691223195 1667432791 1171586172 448533244</internalNodes>
          <leafValues>
            -4.5859870314598083e-01 1.8956330418586731e-01</leafValues></_>
        <_>
          <internalNodes>
            0 -1 74 413159616 520743996 -1228152110 1525517730 -67579704
            254376474 840105835 118360262</internalNodes>
          <leafValues>
            -4.8883524537086487e-01 1.7907932400703430e-01</leafValues></_>
        <_>
          <internalNodes>
            0 -1 86 -754319622 357550476 121208056 1397062037
            -1300718006 899357641 -799870293 1439650455</internalNodes>
          <leafValues>
            -3.0177372694015503e-01 2.8684380650520325e-01</leafValues></_>
        <_>
          <internalNodes>
            0 -1 56 1898496672 -47788822 1589559206 -681769256
            1600073396 -1619001993 494420990 -1959055288</internalNodes>
          <leafValues>
            -2.9871293902397156e-01 3.1112769246101379e-01</leafValues></_>
        <_>
          <internalNodes>
            0 -1 0 204269178 -1904333320 1561600764 514776223 -470481826
            2076687230 -1862487562 21784278</internalNodes>
          <leafValues>
            -5.5689138174057007e-01 1.6171331703662872e-01</leafValues></_>
        <_>
          <internalNodes>
            0 -1 134 387505288 -102440939 1963757303 493688772
            -1742035010 -1423160724 -1145767234 732633567</internalNodes>
          <leafValues>
            -3.1255760788917542e-01 2.9771664738655090e-01</leafValues></_>
        <_>
          <internalNodes>
            0 -1 52 -337831828 -1444994094 1288626136 -1168754824
            -1635214367 1064670036 1505328740 225397670</internalNodes>
          <leafValues>
            -4.7368767857551575e-01 1.8362528085708618e-01</leafValues></_></weakClassifiers></_>
    <!-- stage 4 -->
    <_>
      <maxWeakCount>11</maxWeakCount>
      <stageThreshold>-1.6748924255371094e+00</stageThreshold>
      <weakClassifiers>
        <_>
          <internalNodes>
            0 -1 123 458036497 -136522755 -67420741 -53455 -825625865
            -1413480482 -432015637 -84189985</internalNodes>
          <leafValues>
            -8.1399244070053101e-01 -5.0044924020767212e-01</leafValues></_>
        <_>
          <internalNodes>
            0 -1 2 -1912152960 782906788 -557023925 -45525394 -20087460
            -277894183 -19464194 1279196983</internalNodes>
          <leafValues>
            -6.4957070350646973e-01 -3.8188964128494263e-02</leafValues></_>
        <_>
          <internalNodes>
            0 -1 80 2136223312 -84995 -339809420 -881754287 1600675476
            2146427837 1568177520 896597045</internalNodes>
          <leafValues>
            -7.3075008392333984e-01 9.3117557466030121e-02</leafValues></_>
        <_>
          <internalNodes>
            0 -1 89 -1669327680 -1087330357 -1188108730 -548552749
            -1083810114 -28311752 1452750419 -1111638659</internalNodes>
          <leafValues>
            -4.1584858298301697e-01 1.9254417717456818e-01</leafValues></_>
        <_>
          <internalNodes>
            0 -1 14 792017854 452871468 -1233244426 -708561158
            1878653575 2079222895 -341571864 1265535866</internalNodes>
          <leafValues>
            -3.3390924334526062e-01 2.5316384434700012e-01</leafValues></_>
        <_>
          <internalNodes>
            0 -1 139 422850384 486111957 -67168275 1072111476 182198532
            -138448910 499029204 431489128</internalNodes>
          <leafValues>
            -7.2262918949127197e-01 1.0187775641679764e-01</leafValues></_>
        <_>
          <internalNodes>
            0 -1 88 -1158164754 -1343586454 1455678112 2061500408
            -1095243712 1390464112 668784326 -755503141</internalNodes>
          <leafValues>
            -3.7840631604194641e-01 2.1310831606388092e-01</leafValues></_>
        <_>
          <internalNodes>
            0 -1 9 -1932603908 1852732520 -87085165 2092752180
            -1367365937 -544237449 1958099166 37837356</internalNodes>
          <leafValues>
            -4.7969686985015869e-01 1.6686722636222839e-01</leafValues></_>
        <_>
          <internalNodes>
            0 -1 30 811605112 1070084020 2013241233 -881676323 511654389
            2143138548 -42194071 1058669924</internalNodes>
          <leafValues>
            -5.7341533899307251e-01 1.3139623403549194e-01</leafValues></_>
        <_>
          <internalNodes>
            0 -1 131 225443984 -1853079651 667876094 1033122300
            830268924 -7886033 2113678320 666122956</internalNodes>
          <leafValues>
            -6.9990611076354980e-01 1.0515881329774857e-01</leafValues></_>
        <_>
          <internalNodes>
            0 -1 68 -843612608 -457525851 -1030706656 444003906
            2005605957 1551226708 1417671968 1138552372</internalNodes>
          <leafValues>
            -7.1660047769546509e-01 9.8303988575935364e-02</leafValues></_></weakClassifiers></_>
    <!-- stage 5 -->
    <_>
      <maxWeakCount>13</maxWeakCount>
      <stageThreshold>-1.5146323442459106e+00</stageThreshold>
      <weakClassifiers>
        <_>
          <internalNodes>
            0 -1 103 -538580534 -7617624 -1065713983 -86264581
            -1095779585 1019105986 -536947713 -71567109</internalNodes>
          <leafValues>
            -7.7743482589721680e-01 -3.9897260069847107e-01</leafValues></_>
        <_>
          <internalNodes>
            0 -1 44 1609913612 2028836187 -1677823486 769745505
            -654476726 1136223163 -480844226 341432119</internalNodes>
          <leafValues>
            -6.0325479507446289e-01 -2.4840006604790688e-02</leafValues></_>
        <_>
          <internalNodes>
            0 -1 96 -1095345950 1433097138 -1867188606 1362065263
            -364385214 90687752 282359710 1382889207</internalNodes>
          <leafValues>
            -3.8301596045494080e-01 1.8741452693939209e-01</leafValues></_>
        <_>
          <internalNodes>
            0 -1 130 -567982946 1550734359 200092124 1405505404
            -1103620982 825824145 1490402239 556522218</internalNodes>
          <leafValues>
            -2.6625749468803406e-01 2.8553572297096252e-01</leafValues></_>
        <_>
          <internalNodes>
            0 -1 95 -745812414 1054902080 -24188164 512070206 1679308324
            1195405664 1951995095 852747771</internalNodes>
          <leafValues>
            -4.1392648220062256e-01 1.7605111002922058e-01</leafValues></_>
        <_>
          <internalNodes>
            0 -1 101 -576021296 93919730 1831823572 1192652778
            -660823324 -666669120 475420910 425448054</internalNodes>
          <leafValues>
            -3.3797207474708557e-01 2.3186668753623962e-01</leafValues></_>
        <_>
          <internalNodes>
            0 -1 124 601710356 -335594570 -853332289 -408638514
            -500944880 728434311 -1908752407 51637566</internalNodes>
          <leafValues>
            -4.0041816234588623e-01 1.9989827275276184e-01</leafValues></_>
        <_>
          <internalNodes>
            0 -1 11 -405871378 1745274816 1085180106 552527080
            -616114154 -1916700569 1687727347 1915208</internalNodes>
          <leafValues>
            -6.4855509996414185e-01 1.2003004550933838e-01</leafValues></_>
        <_>
          <internalNodes>
            0 -1 38 -233172845 -160223774 -118638484 901676914
            1583616648 -91594092 985985506 1594586051</internalNodes>
          <leafValues>
            -3.2668921351432800e-01 2.4599772691726685e-01</leafValues></_>
        <_>
          <internalNodes>
            0 -1 72 -654145320 -664239984 875929049 2022332220
            1408882690 -1166626353 1544191307 1461457404</internalNodes>
          <leafValues>
            -3.4794363379478455e-01 2.2838483750820160e-01</leafValues></_>
        <_>
          <internalNodes>
            0 -1 23 1453014822 2127525414 1165391832 79494894
            -1014380172 1706238100 -624143499 1751013660</internalNodes>
          <leafValues>
            -4.6193602681159973e-01 1.7897334694862366e-01</leafValues></_>
        <_>
          <internalNodes>
            0 -1 69 1375597550 265827936 885409624 1665290750 1796943888
            121102877 315113259 937159503</internalNodes>
          <leafValues>
            -3.6606970429420471e-01 2.2894741594791412e-01</leafValues></_>
        <_>
          <internalNodes>
            0 -1 113 -655474878 1063723998 1301293371 1270690784
            1107557188 472281470 1685109414 231964313</internalNodes>
          <leafValues>
            -4.5103901624679565e-01 1.7946229875087738e-01</leafValues></_></weakClassifiers></_>
    <!-- stage 6 -->
    <_>
      <maxWeakCount>13</maxWeakCount>
      <stageThreshold>-1.6813812255859375e+00</stageThreshold>
      <weakClassifiers>
        <_>
          <internalNodes>
            0 -1 66 -74187301 -280008792 -1099301311 1944047989
            -909639970 -827689269 -545457153 -138725121</internalNodes>
          <leafValues>
            -7.8011029958724976e-01 -4.4597533345222473e-01</leafValues></_>
        <_>
          <internalNodes>
            0 -1 60 480909528 -1423868000 -84970848 1744222208
            -761031474 -1091445271 -1210025151 1454136021</internalNodes>
          <leafValues>
            -5.3269672393798828e-01 -1.8623108044266701e-02</leafValues></_>
        <_>
          <internalNodes>
            0 -1 36 -196093656 -1051471394 -1342392268 1164901200
            1637636740 -1149631852 938786804 270029168</internalNodes>
          <leafValues>
            -6.3163638114929199e-01 9.5297954976558685e-02</leafValues></_>
        <_>
          <internalNodes>
            0 -1 125 208934660 793582569 1803138905 -1074434762
            1678569040 1802305471 -1116712384 203723808</internalNodes>
          <leafValues>
            -6.5461075305938721e-01 1.1473345756530762e-01</leafValues></_>
        <_>
          <internalNodes>
            0 -1 65 -1635754808 98695456 1081986176 648796041 1056492548
            319519681 -1333570016 455608912</internalNodes>
          <leafValues>
            -5.4212158918380737e-01 1.3801011443138123e-01</leafValues></_>
        <_>
          <internalNodes>
            0 -1 105 -351709184 -1194431762 1795091985 -79823260
            -1484896626 -294658443 -2039187569 -71593781</internalNodes>
          <leafValues>
            -2.3243774473667145e-01 3.2450956106185913e-01</leafValues></_>
        <_>
          <internalNodes>
            0 -1 108 -1749024736 397088484 -544359483 406355876
            1005606470 816016141 -1988609082 22164801</internalNodes>
          <leafValues>
            -6.1293166875839233e-01 1.3129757344722748e-01</leafValues></_>
        <_>
          <internalNodes>
            0 -1 61 -1637351360 -546438791 729681447 297789386
            -1238883310 -1120000676 -640235149 -1422380974</internalNodes>
          <leafValues>
            -3.3737528324127197e-01 2.0345389842987061e-01</leafValues></_>
        <_>
          <internalNodes>
            0 -1 19 -1640234960 -548314369 333895927 475617404
            1792961240 -1167067072 2050093211 1259244744</internalNodes>
          <leafValues>
            -3.5341477394104004e-01 2.1518670022487640e-01</leafValues></_>
        <_>
          <internalNodes>
            0 -1 112 2101120240 1913997852 -1674088426 2079541689
            -838162070 -14630717 -1414605226 506172589</internalNodes>
          <leafValues>
            -3.4917145967483521e-01 2.2273078560829163e-01</leafValues></_>
        <_>
          <internalNodes>
            0 -1 48 -486530814 720850716 894262268 801788232 1794870814
            -847256342 -802002989 1736028511</internalNodes>
          <leafValues>
            -5.0005376338958740e-01 1.5327768027782440e-01</leafValues></_>
        <_>
          <internalNodes>
            0 -1 137 985300826 -268468822 -805491563 1188310073
            -2118474020 -335610551 397824687 -74328367</internalNodes>
          <leafValues>
            -2.5623574852943420e-01 2.9814252257347107e-01</leafValues></_>
        <_>
          <internalNodes>
            0 -1 117 646720760 1021643278 -522315356 82327718
            -1338228432 999428052 267333184 55117404</internalNodes>
          <leafValues>
            -5.9810471534729004e-01 1.3125436007976532e-01</leafValues></_></weakClassifiers></_>
    <!-- stage 7 -->
    <_>
      <maxWeakCount>15</maxWeakCount>
      <stageThreshold>-1.6308043003082275e+00</stageThreshold>
      <weakClassifiers>
        <_>
          <internalNodes>
            0 -1 111 -541329173 -609393174 -841944125 -555935768
            -320080438 2125393806 1601885855 -6570757</internalNodes>
          <leafValues>
            -7.6847040653228760e-01 -4.0058195590972900e-01</leafValues></_>
        <_>
          <internalNodes>
            0 -1 122 -89616190 1332287428 605952090 1895673491
            -310471028 -2028070588 1600045558 -1145045829</internalNodes>
          <leafValues>
            -3.8825866580009460e-01 1.0304693877696991e-01</leafValues></_>
        <_>
          <internalNodes>
            0 -1 45 2139119808 555836204 1987164390 712856653 2024297996
            -856524804 1757082778 159987757</internalNodes>
          <leafValues>
            -4.8444601893424988e-01 1.1998270452022552e-01</leafValues></_>
        <_>
          <internalNodes>
            0 -1 27 280531081 -222946924 99874847 965090428 -1972495942
            -361600718 1272742739 1229758251</internalNodes>
          <leafValues>
            -3.0301240086555481e-01 2.1430580317974091e-01</leafValues></_>
        <_>
          <internalNodes>
            0 -1 32 654007630 -2033278139 777942476 1937288140 316936728
            1861949767 -1523366850 1519596366</internalNodes>
          <leafValues>
            -3.4113144874572754e-01 2.1549116075038910e-01</leafValues></_>
        <_>
          <internalNodes>
            0 -1 93 1940721864 -874298001 886985952 1363138799
            -1895992274 606594927 397969147 1915263359</internalNodes>
          <leafValues>
            -3.2558843493461609e-01 2.0908896625041962e-01</leafValues></_>
        <_>
          <internalNodes>
            0 -1 128 78767140 1257743452 715291012 2002521 1250442785
            752041705 -1755289431 756090280</internalNodes>
          <leafValues>
            -4.4240692257881165e-01 1.6397665441036224e-01</leafValues></_>
        <_>
          <internalNodes>
            0 -1 76 1913265856 1324170344 -353602934 1515970417
            698282830 1980291128 -1806026921 611695078</internalNodes>
          <leafValues>
            -4.5114466547966003e-01 1.5305636823177338e-01</leafValues></_>
        <_>
          <internalNodes>
            0 -1 75 -1356822424 170806696 1425169814 1001349567
            1072922852 731901537 526919149 1409681346</internalNodes>
          <leafValues>
            -4.4316953420639038e-01 1.5687018632888794e-01</leafValues></_>
        <_>
          <internalNodes>
            0 -1 84 -123769184 -1480584 1342124783 -1150427141
            -1833118010 1179082557 -704645410 -549750661</internalNodes>
          <leafValues>
            -2.2719047963619232e-01 3.4854382276535034e-01</leafValues></_>
        <_>
          <internalNodes>
            0 -1 126 -1158129344 753742199 -1276676107 37072738
            -1229081024 -394097741 82924050 227609678</internalNodes>
          <leafValues>
            -4.6883711218833923e-01 1.6395735740661621e-01</leafValues></_>
        <_>
          <internalNodes>
            0 -1 70 -327538166 -531955770 -1277945222 -1844178561
            401415396 -1218725345 954459334 538986935</internalNodes>
          <leafValues>
            -4.4284993410110474e-01 1.6164071857929230e-01</leafValues></_>
        <_>
          <internalNodes>
            0 -1 136 -608723691 827535897 1482810022 -1644170257
            -1158938648 -508730969 -879903144 973929400</internalNodes>
          <leafValues>
            -3.4627109766006470e-01 2.2471031546592712e-01</leafValues></_>
        <_>
          <internalNodes>
            0 -1 99 -654756149 1279552121 -1099047195 -1154713091
            -1225012541 -2052165698 -365514281 -78649381</internalNodes>
          <leafValues>
            -2.0699417591094971e-01 4.0297266840934753e-01</leafValues></_>
        <_>
          <internalNodes>
            0 -1 129 -1541144324 -1870869071 -1753668109 538345148
            -1880845746 321810935 -1627198359 716184705</internalNodes>
          <leafValues>
            -4.4523322582244873e-01 1.8244436383247375e-01</leafValues></_></weakClassifiers></_>
    <!-- stage 8 -->
    <_>
      <maxWeakCount>14</maxWeakCount>
      <stageThreshold>-1.7213845252990723e+00</stageThreshold>
      <weakClassifiers>
        <_>
          <internalNodes>
            0 -1 114 -72429351 -582124625 2010373071 -70260015
            -1279795522 -1829775937 -22153473 -537136929</internalNodes>
          <leafValues>
            -7.6285618543624878e-01 -3.8255032896995544e-01</leafValues></_>
        <_>
          <internalNodes>
            0 -1 54 -711469571 1977688356 2010591425 1778253025
            -17121142 -1112576292 -690580505 -2061045380</internalNodes>
          <leafValues>
            -3.7535274028778076e-01 1.1489127576351166e-01</leafValues></_>
        <_>
          <internalNodes>
            0 -1 13 682100812 -889521220 938926071 -849064728 901209437
            -291244067 460721869 116589680</internalNodes>
          <leafValues>
            -4.4742301106452942e-01 1.3519810140132904e-01</leafValues></_>
        <_>
          <internalNodes>
            0 -1 20 -1188544328 -1781264672 653584309 120682349
            1027584916 748500849 674419091 458056023</internalNodes>
          <leafValues>
            -3.7080389261245728e-01 1.7358210682868958e-01</leafValues></_>
        <_>
          <internalNodes>
            0 -1 53 1937686516 961022380 -1394301340 812445749
            1539057732 -398155672 2116836692 476060996</internalNodes>
          <leafValues>
            -7.5973063707351685e-01 1.2106920033693314e-01</leafValues></_>
        <_>
          <internalNodes>
            0 -1 107 67110064 -789736655 387847982 889073590 839691416
            716065887 388522573 50333491</internalNodes>
          <leafValues>
            -5.3841835260391235e-01 1.1954093724489212e-01</leafValues></_>
        <_>
          <internalNodes>
            0 -1 43 -2053091320 55174127 -1427182302 720360078 56058238
            2135762115 -1155670686 584268487</internalNodes>
          <leafValues>
            -5.9731948375701904e-01 1.0896511375904083e-01</leafValues></_>
        <_>
          <internalNodes>
            0 -1 15 -667267024 -890151424 1989460659 1516178925
            -368386910 1843580149 -180589237 524486164</internalNodes>
          <leafValues>
            -3.7085080146789551e-01 1.8400706350803375e-01</leafValues></_>
        <_>
          <internalNodes>
            0 -1 100 -578826390 -472637446 -1226027462 267075583
            800581383 281291670 628762467 65910366</internalNodes>
          <leafValues>
            -3.7330093979835510e-01 1.9038824737071991e-01</leafValues></_>
        <_>
          <internalNodes>
            0 -1 33 547637920 619240636 -18583311 456944374 998546620
            -1079183504 168650813 471469204</internalNodes>
          <leafValues>
            -5.4061615467071533e-01 1.2902943789958954e-01</leafValues></_>
        <_>
          <internalNodes>
            0 -1 22 1315352242 2081064854 -1236867821 1234964860
            267468149 666219135 2106412351 1496589398</internalNodes>
          <leafValues>
            -4.3309563398361206e-01 1.6346895694732666e-01</leafValues></_>
        <_>
          <internalNodes>
            0 -1 47 1747549988 -1896344044 -67186883 1843196976
            1853427064 1646698808 504649244 1463506627</internalNodes>
          <leafValues>
            -4.0533599257469177e-01 1.8381056189537048e-01</leafValues></_>
        <_>
          <internalNodes>
            0 -1 24 83667930 949764596 -747351778 -826492684 1070037028
            -874186608 717436240 511864128</internalNodes>
          <leafValues>
            -5.1936608552932739e-01 1.3761693239212036e-01</leafValues></_>
        <_>
          <internalNodes>
            0 -1 57 871897540 209882682 579075390 1801985900 1382547796
            1282555335 1675527729 1998448489</internalNodes>
          <leafValues>
            -4.9267342686653137e-01 1.4328441023826599e-01</leafValues></_></weakClassifiers></_>
    <!-- stage 9 -->
    <_>
      <maxWeakCount>14</maxWeakCount>
      <stageThreshold>-1.7168258428573608e+00</stageThreshold>
      <weakClassifiers>
        <_>
          <internalNodes>
            0 -1 25 -6291973 -6416485 956679615 -6624226 -659293737
            -1245709861 -1082166819 -4101</internalNodes>
          <leafValues>
            -7.6166146993637085e-01 -4.0621650218963623e-01</leafValues></_>
        <_>
          <internalNodes>
            0 -1 127 1799321671 995774007 1636243526 692085992
            -1932963852 761485818 1979265264 464501995</internalNodes>
          <leafValues>
            -4.4453853368759155e-01 1.1799193918704987e-02</leafValues></_>
        <_>
          <internalNodes>
            0 -1 55 -291144470 606690440 586250272 -993136568 241434862
            1214343742 149190550 338381149</internalNodes>
          <leafValues>
            -4.7004377841949463e-01 1.1939926445484161e-01</leafValues></_>
        <_>
          <internalNodes>
            0 -1 58 -1140057615 1622981504 -3168999 468131368 425368180
            -303465692 403978166 218169526</internalNodes>
          <leafValues>
            -3.4179833531379700e-01 2.1139916777610779e-01</leafValues></_>
        <_>
          <internalNodes>
            0 -1 1 1952356184 784127898 -862686030 -93533028 2078265502
            -9506081 -134446323 1833240019</internalNodes>
          <leafValues>
            -4.1458350419998169e-01 1.4043208956718445e-01</leafValues></_>
        <_>
          <internalNodes>
            0 -1 39 -1314226012 1843681493 -353633735 52542101
            1744173590 -16856312 1366101279 894416113</internalNodes>
          <leafValues>
            -3.2400274276733398e-01 2.0926278829574585e-01</leafValues></_>
        <_>
          <internalNodes>
            0 -1 118 179701784 251445172 1996445543 1286608236 602723537
            1874263797 684031012 455872056</internalNodes>
          <leafValues>
            -5.4502153396606445e-01 1.1859220266342163e-01</leafValues></_>
        <_>
          <internalNodes>
            0 -1 40 -1622111192 457891198 771319074 272359928 774802964
            -1150006412 2007544739 -744808535</internalNodes>
          <leafValues>
            -3.0096900463104248e-01 2.2657874226570129e-01</leafValues></_>
        <_>
          <internalNodes>
            0 -1 31 -264270450 -499458690 243857160 -1035317414
            -1051169759 862147276 930587076 1236106783</internalNodes>
          <leafValues>
            -4.6599176526069641e-01 1.4792585372924805e-01</leafValues></_>
        <_>
          <internalNodes>
            0 -1 50 -626225896 -624765348 1090975973 -637823413
            -348874699 -1134122652 1446692216 -1725950628</internalNodes>
          <leafValues>
            -2.7757796645164490e-01 2.5246173143386841e-01</leafValues></_>
        <_>
          <internalNodes>
            0 -1 46 -1279426398 -688672822 1073622805 871525463
            -891743970 -405602767 1895703946 -815589260</internalNodes>
          <leafValues>
            -2.8565359115600586e-01 2.5989151000976562e-01</leafValues></_>
        <_>
          <internalNodes>
            0 -1 77 643469828 1143780378 -123668264 27547322 522594448
            1356275050 37436764 49898494</internalNodes>
          <leafValues>
            -4.7345447540283203e-01 1.5543338656425476e-01</leafValues></_>
        <_>
          <internalNodes>
            0 -1 119 296751256 615708144 -1517620250 1524008166
            1340339911 -404430613 1451532230 138623445</internalNodes>
          <leafValues>
            -4.9527648091316223e-01 1.4131739735603333e-01</leafValues></_>
        <_>
          <internalNodes>
            0 -1 73 -1751262465 -607924496 1526534050 66027161
            1048008390 2130702251 883154838 -831701039</internalNodes>
          <leafValues>
            -2.4364149570465088e-01 3.1126642227172852e-01</leafValues></_></weakClassifiers></_>
    <!-- stage 10 -->
    <_>
      <maxWeakCount>12</maxWeakCount>
      <stageThreshold>-1.5691397190093994e+00</stageThreshold>
      <weakClassifiers>
        <_>
          <internalNodes>
            0 -1 90 -67251717 -5392136 -756094261 -908334227 1131199451
            -404789457 -114166017 -1080068101</internalNodes>
          <leafValues>
            -7.6993918418884277e-01 -4.5702812075614929e-01</leafValues></_>
        <_>
          <internalNodes>
            0 -1 21 -1995290424 1807705376 1698067544 -133761031
            -722994138 1034895992 865786458 122803230</internalNodes>
          <leafValues>
            -5.1390218734741211e-01 -3.4164670854806900e-02</leafValues></_>
        <_>
          <internalNodes>
            0 -1 133 202899656 793556341 -272027651 247814873
            -1767364774 2127363541 -1355362672 309858684</internalNodes>
          <leafValues>
            -5.9615105390548706e-01 8.8759280741214752e-02</leafValues></_>
        <_>
          <internalNodes>
            0 -1 83 658147048 -529686750 1011114560 1089290096
            -1075883324 1326235974 576566099 33607686</internalNodes>
          <leafValues>
            -4.7420296072959900e-01 1.3604083657264709e-01</leafValues></_>
        <_>
          <internalNodes>
            0 -1 79 438607573 1393847200 1603997179 1908717788
            -1256508289 -1895045257 557769703 254160280</internalNodes>
          <leafValues>
            -2.9973566532135010e-01 2.1636703610420227e-01</leafValues></_>
        <_>
          <internalNodes>
            0 -1 51 138061248 671153798 449279080 149748865 -940668412
            70671066 947824371 1211398632</internalNodes>
          <leafValues>
            -6.2955015897750854e-01 9.1766610741615295e-02</leafValues></_>
        <_>
          <internalNodes>
            0 -1 63 512379108 290239824 978456251 1046582880 1608665290
            825371702 895373472 1240644500</internalNodes>
          <leafValues>
            -4.2580744624137878e-01 1.5114426612854004e-01</leafValues></_>
        <_>
          <internalNodes>
            0 -1 41 1233319858 767175698 -458253228 1175514598
            1864205436 102054821 1234602820 82206177</internalNodes>
          <leafValues>
            -4.9753156304359436e-01 1.2372613698244095e-01</leafValues></_>
        <_>
          <internalNodes>
            0 -1 37 -930126934 116267134 1658412120 -1000030258
            2083216676 1145216606 1339502609 1112374723</internalNodes>
          <leafValues>
            -5.7955473661422729e-01 1.0594478249549866e-01</leafValues></_>
        <_>
          <internalNodes>
            0 -1 138 -1461714536 -1606949006 -1344285789 544163824
            281640070 576990382 1168907842 1279921592</internalNodes>
          <leafValues>
            -4.4130644202232361e-01 1.3817271590232849e-01</leafValues></_>
        <_>
          <internalNodes>
            0 -1 120 -1156950838 -307528127 1521916721 23046075
            129336961 1025003321 1606071181 -1754552353</internalNodes>
          <leafValues>
            -2.4960739910602570e-01 2.7363586425781250e-01</leafValues></_>
        <_>
          <internalNodes>
            0 -1 67 -158792160 -1294802072 -432541402 -1744062219
            -778179840 19417614 -690801802 145009008</internalNodes>
          <leafValues>
            -5.2599704265594482e-01 1.3594806194305420e-01</leafValues></_></weakClassifiers></_>
    <!-- stage 11 -->
    <_>
      <maxWeakCount>16</maxWeakCount>
      <stageThreshold>-1.7528687715530396e+00</stageThreshold>
      <weakClassifiers>
        <_>
          <internalNodes>
            0 -1 62 -149685038 -3678276 -341901853 -179438659
            -1092765025 -298109125 2042032509 -81846088</internalNodes>
          <leafValues>
            -7.7769637107849121e-01 -4.8927876353263855e-01</leafValues></_>
        <_>
          <internalNodes>
            0 -1 135 1895843028 855603332 754302865 548216364
            -1309872616 492730809 2042006251 51386108</internalNodes>
          <leafValues>
            -5.4467707872390747e-01 -4.7985110431909561e-02</leafValues></_>
        <_>
          <internalNodes>
            0 -1 132 995299188 -605430786 713978528 2145610732
            1596333712 -610411779 1039940368 2007034746</internalNodes>
          <leafValues>
            -4.0930593013763428e-01 1.3168384134769440e-01</leafValues></_>
        <_>
          <internalNodes>
            0 -1 141 135270488 186679904 1588494076 301484672 460631052
            789204068 -1149762763 91511096</internalNodes>
          <leafValues>
            -5.5158585309982300e-01 1.3654638826847076e-01</leafValues></_>
        <_>
          <internalNodes>
            0 -1 7 -1449120024 -1901489940 1736911912 57595303
            2117227885 -575505487 -808060754 1557598957</internalNodes>
          <leafValues>
            -5.5229222774505615e-01 9.3123748898506165e-02</leafValues></_>
        <_>
          <internalNodes>
            0 -1 18 699664796 -1338344794 519869790 1557816369
            -1879430012 75333468 210533455 757612864</internalNodes>
          <leafValues>
            -5.2654796838760376e-01 1.3275574147701263e-01</leafValues></_>
        <_>
          <internalNodes>
            0 -1 42 -1173843759 -1422567653 1808654191 1975465082
            1310855549 -1930143265 1400037334 514482987</internalNodes>
          <leafValues>
            -3.0987590551376343e-01 2.0631419122219086e-01</leafValues></_>
        <_>
          <internalNodes>
            0 -1 12 216935154 1815899724 -195790867 1560419472
            -1597009484 985521181 2082233876 79447856</internalNodes>
          <leafValues>
            -5.8930075168609619e-01 1.0871746391057968e-01</leafValues></_>
        <_>
          <internalNodes>
            0 -1 85 942147204 -142130984 -957686281 -778020827 706257204
            1079966589 134803692 301990924</internalNodes>
          <leafValues>
            -5.6027537584304810e-01 1.0747280716896057e-01</leafValues></_>
        <_>
          <internalNodes>
            0 -1 17 1319893384 315418976 -1349633230 1042347850
            1068510397 1290494060 511184416 1566853440</internalNodes>
          <leafValues>
            -4.7679239511489868e-01 1.3080811500549316e-01</leafValues></_>
        <_>
          <internalNodes>
            0 -1 104 -1388411222 -60877334 1247081520 1881378772
            -1366698588 334503373 777696203 1139727791</internalNodes>
          <leafValues>
            -3.1828305125236511e-01 2.0798720419406891e-01</leafValues></_>
        <_>
          <internalNodes>
            0 -1 115 -86417791 -1666221080 1785294564 -605325638
            792583776 -475373584 467579615 -1296330197</internalNodes>
          <leafValues>
            -2.2518703341484070e-01 3.1177216768264771e-01</leafValues></_>
        <_>
          <internalNodes>
            0 -1 35 -1944403214 -559644563 -1295074352 2008016057
            -1703524586 1909257213 882202020 222331950</internalNodes>
          <leafValues>
            -3.7017619609832764e-01 1.9178202748298645e-01</leafValues></_>
        <_>
          <internalNodes>
            0 -1 97 -1601043390 57181728 -459357024 1123271652
            1454299712 611544816 -1676872732 856171892</internalNodes>
          <leafValues>
            -5.3707754611968994e-01 1.3044868409633636e-01</leafValues></_>
        <_>
          <internalNodes>
            0 -1 81 -2060382012 637448948 -831687192 450718691 -78305066
            46535288 2056967761 353579374</internalNodes>
          <leafValues>
            -4.3564048409461975e-01 1.6090731322765350e-01</leafValues></_>
        <_>
          <internalNodes>
            0 -1 78 1305255904 938026999 913797213 410746473 -65928572
            1035893167 858333390 -192712</internalNodes>
          <leafValues>
            -2.9513937234878540e-01 2.4454681575298309e-01</leafValues></_></weakClassifiers></_></stages>
  <features>
    <_>
      <rect>
        0 0 3 6</rect></_>
    <_>
      <rect>
        0 0 5 10</rect></_>
    <_>
      <rect>
        0 0 6 7</rect></_>
    <_>
      <rect>
        0 0 8 7</rect></_>
    <_>
      <rect>
        0 0 10 5</rect></_>
    <_>
      <rect>
        0 0 10 6</rect></_>
    <_>
      <rect>
        0 0 10 8</rect></_>
    <_>
      <rect>
        0 2 8 4</rect></_>
    <_>
      <rect>
        0 2 8 9</rect></_>
    <_>
      <rect>
        0 5 3 5</rect></_>
    <_>
      <rect>
        0 5 4 8</rect></_>
    <_>
      <rect>
        0 5 8 5</rect></_>
    <_>
      <rect>
        0 6 2 7</rect></_>
    <_>
      <rect>
        0 8 3 4</rect></_>
    <_>
      <rect>
        0 14 5 5</rect></_>
    <_>
      <rect>
        0 15 1 1</rect></_>
    <_>
      <rect>
        0 15 10 5</rect></_>
    <_>
      <rect>
        0 18 5 4</rect></_>
    <_>
      <rect>
        0 19 1 2</rect></_>
    <_>
      <rect>
        0 25 1 1</rect></_>
    <_>
      <rect>
        0 27 1 1</rect></_>
    <_>
      <rect>
        1 2 1 1</rect></_>
    <_>
      <rect>
        1 3 3 5</rect></_>
    <_>
      <rect>
        1 11 5 4</rect></_>
    <_>
      <rect>
        1 12 3 6</rect></_>
    <_>
      <rect>
        1 15 3 5</rect></_>
    <_>
      <rect>
        1 26 1 1</rect></_>
    <_>
      <rect>
        1 26 2 1</rect></_>
    <_>
      <rect>
        2 8 5 7</rect></_>
    <_>
      <rect>
        2 12 9 6</rect></_>
    <_>
      <rect>
        2 15 1 5</rect></_>
    <_>
      <rect>
        2 17 6 2</rect></_>
    <_>
      <rect>
        2 19 7 3</rect></_>
    <_>
      <rect>
        2 20 2 3</rect></_>
    <_>
      <rect>
        2 23 1 1</rect></_>
    <_>
      <rect>
        3 3 1 1</rect></_>
    <_>
      <rect>
        3 11 9 6</rect></_>
    <_>
      <rect>
        3 16 4 1</rect></_>
    <_>
      <rect>
        3 22 1 1</rect></_>
    <_>
      <rect>
        4 0 1 1</rect></_>
    <_>
      <rect>
        4 18 1 1</rect></_>
    <_>
      <rect>
        4 24 7 2</rect></_>
    <_>
      <rect>
        4 26 1 1</rect></_>
    <_>
      <rect>
        5 0 7 5</rect></_>
    <_>
      <rect>
        5 6 8 3</rect></_>
    <_>
      <rect>
        5 7 5 2</rect></_>
    <_>
      <rect>
        5 13 1 1</rect></_>
    <_>
      <rect>
        5 20 4 3</rect></_>
    <_>
      <rect>
        6 0 8 3</rect></_>
    <_>
      <rect>
        6 3 8 9</rect></_>
    <_>
      <rect>
        6 6 1 1</rect></_>
    <_>
      <rect>
        6 8 4 2</rect></_>
    <_>
      <rect>
        6 18 8 4</rect></_>
    <_>
      <rect>
        7 5 6 8</rect></_>
    <_>
      <rect>
        7 8 4 2</rect></_>
    <_>
      <rect>
        7 9 4 2</rect></_>
    <_>
      <rect>
        7 11 1 1</rect></_>
    <_>
      <rect>
        7 22 7 2</rect></_>
    <_>
      <rect>
        7 27 1 1</rect></_>
    <_>
      <rect>
        8 0 5 8</rect></_>
    <_>
      <rect>
        8 5 4 2</rect></_>
    <_>
      <rect>
        8 6 1 1</rect></_>
    <_>
      <rect>
        8 10 1 1</rect></_>
    <_>
      <rect>
        8 21 1 1</rect></_>
    <_>
      <rect>
        9 0 7 6</rect></_>
    <_>
      <rect>
        9 8 4 2</rect></_>
    <_>
      <rect>
        9 9 3 2</rect></_>
    <_>
      <rect>
        9 10 4 1</rect></_>
    <_>
      <rect>
        9 13 7 2</rect></_>
    <_>
      <rect>
        9 19 4 2</rect></_>
    <_>
      <rect>
        10 0 3 2</rect></_>
    <_>
      <rect>
        10 0 4 5</rect></_>
    <_>
      <rect>
        10 2 1 1</rect></_>
    <_>
      <rect>
        10 6 4 3</rect></_>
    <_>
      <rect>
        10 7 2 2</rect></_>
    <_>
      <rect>
        10 11 1 2</rect></_>
    <_>
      <rect>
        10 12 2 1</rect></_>
    <_>
      <rect>
        10 21 5 3</rect></_>
    <_>
      <rect>
        10 23 1 1</rect></_>
    <_>
      <rect>
        10 26 1 1</rect></_>
    <_>
      <rect>
        11 0 6 10</rect></_>
    <_>
      <rect>
        11 6 2 2</rect></_>
    <_>
      <rect>
        11 9 1 1</rect></_>
    <_>
      <rect>
        11 9 2 1</rect></_>
    <_>
      <rect>
        11 10 1 1</rect></_>
    <_>
      <rect>
        11 10 1 2</rect></_>
    <_>
      <rect>
        11 10 2 2</rect></_>
    <_>
      <rect>
        11 11 1 1</rect></_>
    <_>
      <rect>
        11 11 3 1</rect></_>
    <_>
      <rect>
        12 2 2 4</rect></_>
    <_>
      <rect>
        12 7 2 3</rect></_>
    <_>
      <rect>
        12 8 1 1</rect></_>
    <_>
      <rect>
        12 10 1 1</rect></_>
    <_>
      <rect>
        12 10 2 1</rect></_>
    <_>
      <rect>
        12 12 1 1</rect></_>
    <_>
      <rect>
        12 14 2 1</rect></_>
    <_>
      <rect>
        13 11 2 1</rect></_>
    <_>
      <rect>
        13 12 1 1</rect></_>
    <_>
      <rect>
        13 14 1 1</rect></_>
    <_>
      <rect>
        13 16 1 1</rect></_>
    <_>
      <rect>
        13 16 5 2</rect></_>
    <_>
      <rect>
        13 27 1 1</rect></_>
    <_>
      <rect>
        14 7 1 1</rect></_>
    <_>
      <rect>
        14 9 1 1</rect></_>
    <_>
      <rect>
        14 11 2 1</rect></_>
    <_>
      <rect>
        14 15 1 1</rect></_>
    <_>
      <rect>
        15 0 5 9</rect></_>
    <_>
      <rect>
        15 1 1 1</rect></_>
    <_>
      <rect>
        15 4 2 4</rect></_>
    <_>
      <rect>
        15 6 5 7</rect></_>
    <_>
      <rect>
        15 9 1 1</rect></_>
    <_>
      <rect>
        15 10 1 1</rect></_>
    <_>
      <rect>
        15 10 1 2</rect></_>
    <_>
      <rect>
        15 10 5 2</rect></_>
    <_>
      <rect>
        16 10 1 1</rect></_>
    <_>
      <rect>
        16 12 1 1</rect></_>
    <_>
      <rect>
        16 16 1 1</rect></_>
    <_>
      <rect>
        16 19 4 3</rect></_>
    <_>
      <rect>
        16 21 1 2</rect></_>
    <_>
      <rect>
        17 4 1 2</rect></_>
    <_>
      <rect>
        17 10 1 1</rect></_>
    <_>
      <rect>
        17 12 1 1</rect></_>
    <_>
      <rect>
        17 17 1 1</rect></_>
    <_>
      <rect>
        18 0 3 4</rect></_>
    <_>
      <rect>
        18 0 4 6</rect></_>
    <_>
      <rect>
        18 4 4 5</rect></_>
    <_>
      <rect>
        18 5 3 3</rect></_>
    <_>
      <rect>
        18 16 4 4</rect></_>
    <_>
      <rect>
        18 21 4 3</rect></_>
    <_>
      <rect>
        18 24 2 2</rect></_>
    <_>
      <rect>
        18 27 1 1</rect></_>
    <_>
      <rect>
        19 15 1 5</rect></_>
    <_>
      <rect>
        20 0 3 9</rect></_>
    <_>
      <rect>
        21 21 1 3</rect></_>
    <_>
      <rect>
        22 24 1 1</rect></_>
    <_>
      <rect>
        22 25 1 1</rect></_>
    <_>
      <rect>
        23 5 2 8</rect></_>
    <_>
      <rect>
        23 24 2 1</rect></_>
    <_>
      <rect>
        23 25 2 1</rect></_>
    <_>
      <rect>
        24 1 2 9</rect></_>
    <_>
      <rect>
        26 25 1 1</rect></_>
    <_>
      <rect>
        26 26 1 1</rect></_></features></cascade>
</opencv_storage>
